{"learner":{"attributes":{"scikit_learn":"{\"_estimator_type\": \"classifier\"}"},"feature_names":["release_speed","release_spin_rate","launch_speed","launch_angle","is_barrel","is_barrel_expanded","is_hard_hit","is_sweet_spot"],"feature_types":["float","int","float","int","int","int","int","int"],"gradient_booster":{"model":{"cats":{"enc":[],"feature_segments":[],"sorted_idx":[]},"gbtree_model_param":{"num_parallel_tree":"1","num_trees":"200"},"iteration_indptr":[0,1,2,3,4,5,6,7,8,9,10,11,12,13,14,15,16,17,18,19,20,21,22,23,24,25,26,27,28,29,30,31,32,33,34,35,36,37,38,39,40,41,42,43,44,45,46,47,48,49,50,51,52,53,54,55,56,57,58,59,60,61,62,63,64,65,66,67,68,69,70,71,72,73,74,75,76,77,78,79,80,81,82,83,84,85,86,87,88,89,90,91,92,93,94,95,96,97,98,99,100,101,102,103,104,105,106,107,108,109,110,111,112,113,114,115,116,117,118,119,120,121,122,123,124,125,126,127,128,129,130,131,132,133,134,135,136,137,138,139,140,141,142,143,144,145,146,147,148,149,150,151,152,153,154,155,156,157,158,159,160,161,162,163,164,165,166,167,168,169,170,171,172,173,174,175,176,177,178,179,180,181,182,183,184,185,186,187,188,189,190,191,192,193,194,195,196,197,198,199,200],"tree_info":[0,0,0,0,0,0,0,0,0,0,0,0,0,0,0,0,0,0,0,0,0,0,0,0,0,0,0,0,0,0,0,0,0,0,0,0,0,0,0,0,0,0,0,0,0,0,0,0,0,0,0,0,0,0,0,0,0,0,0,0,0,0,0,0,0,0,0,0,0,0,0,0,0,0,0,0,0,0,0,0,0,0,0,0,0,0,0,0,0,0,0,0,0,0,0,0,0,0,0,0,0,0,0,0,0,0,0,0,0,0,0,0,0,0,0,0,0,0,0,0,0,0,0,0,0,0,0,0,0,0,0,0,0,0,0,0,0,0,0,0,0,0,0,0,0,0,0,0,0,0,0,0,0,0,0,0,0,0,0,0,0,0,0,0,0,0,0,0,0,0,0,0,0,0,0,0,0,0,0,0,0,0,0,0,0,0,0,0,0,0,0,0,0,0,0,0,0,0,0,0],"trees":[{"base_weights":[-2.3506092E-2,-1.2736368E0,2.535737E0,-3.0489955E-2,-8.666319E-1,1.6316016E0,2.5778673E0,-1.4591383E0,4.4813958E-1,-2.4492998E-2,1.9730995E0,1.6488154E0,2.6231353E0,-1.4791918E0,-5.8829206E-1,7.70508E-1,-1.1996533E0,-1.7559906E-2,2.1039615E0,1.7747756E0,-1.869381E-2,2.642904E0,1.7926444E0,-1.358213E0,-3.042609E-2,4.0223077E-2,-2.7476288E-2,8.211738E-4,1.2138798E0,-2.9588453E-2,3.5637707E-2,1.1364607E0,2.4722736E0,7.204273E-1,2.0411646E0,2.2543263E0,2.6938074E0,4.030591E-2,-1.7559906E-2,-2.864976E-2,8.101663E-3,-1.9354513E-2,8.554169E-3,3.3053163E-2,6.428471E-3,3.2317292E-2,-1.964523E-2,2.4867598E-2,5.182275E-2,3.4255285E-2,-2.2764534E-2,5.1282395E-2,2.5683394E-2,3.676256E-2,5.1479843E-2,4.674214E-2,5.534259E-2],"categories":[],"categories_nodes":[],"categories_segments":[],"categories_sizes":[],"default_left":[0,0,0,0,0,0,0,0,0,0,0,0,0,0,0,0,0,0,0,0,0,0,0,0,0,0,0,0,0,0,0,0,0,0,0,0,0,0,0,0,0,0,0,0,0,0,0,0,0,0,0,0,0,0,0,0,0],"id":0,"left_children":[1,3,5,-1,7,9,11,13,15,-1,17,19,21,23,25,27,29,-1,31,33,-1,35,37,39,-1,-1,-1,41,43,-1,-1,45,47,49,51,53,55,-1,-1,-1,-1,-1,-1,-1,-1,-1,-1,-1,-1,-1,-1,-1,-1,-1,-1,-1,-1],"loss_changes":[8.524716E3,1.8144702E2,2.9101562E1,0E0,5.342085E2,4.3047142E1,3.0739258E1,7.3791504E0,1.1435449E2,0E0,1.5872009E1,1.5140808E1,8.286621E0,2.828369E-1,2.7864622E1,6.1154358E1,3.210743E1,0E0,1.0102295E1,9.721603E0,0E0,9.212891E0,1.4585609E1,1.7394958E1,0E0,0E0,0E0,2.7909132E1,4.3994858E1,0E0,0E0,1.361482E1,4.8745728E-1,1.9624128E1,9.084518E0,7.9926147E0,1.1269043E1,0E0,0E0,0E0,0E0,0E0,0E0,0E0,0E0,0E0,0E0,0E0,0E0,0E0,0E0,0E0,0E0,0E0,0E0,0E0,0E0],"parents":[2147483647,0,0,1,1,2,2,4,4,5,5,6,6,7,7,8,8,10,10,11,11,12,12,13,13,14,14,15,15,16,16,18,18,19,19,21,21,22,22,23,23,27,27,28,28,31,31,32,32,33,33,34,34,35,35,36,36],"right_children":[2,4,6,-1,8,10,12,14,16,-1,18,20,22,24,26,28,30,-1,32,34,-1,36,38,40,-1,-1,-1,42,44,-1,-1,46,48,50,52,54,56,-1,-1,-1,-1,-1,-1,-1,-1,-1,-1,-1,-1,-1,-1,-1,-1,-1,-1,-1,-1],"split_conditions":[1E0,2.1E1,2E1,-3.0489955E-2,9.49E1,1.075E2,1.003E2,9.45E1,4.2E1,-2.4492998E-2,1.7E1,9.52E1,3.7E1,8.42E1,7.58E1,3E1,1.05E2,-1.7559906E-2,1.107E2,8.48E1,-1.869381E-2,2.3E1,9.37E1,8.41E1,-3.042609E-2,4.0223077E-2,-2.7476288E-2,2.238E3,3.7E1,-2.9588453E-2,3.5637707E-2,1.093E2,8.6E1,9.95E1,8.83E1,1.075E2,1.026E2,4.030591E-2,-1.7559906E-2,-2.864976E-2,8.101663E-3,-1.9354513E-2,8.554169E-3,3.3053163E-2,6.428471E-3,3.2317292E-2,-1.964523E-2,2.4867598E-2,5.182275E-2,3.4255285E-2,-2.2764534E-2,5.1282395E-2,2.5683394E-2,3.676256E-2,5.1479843E-2,4.674214E-2,5.534259E-2],"split_indices":[5,3,3,0,2,2,2,2,3,0,3,0,3,0,0,3,2,0,2,0,0,3,0,0,0,0,0,1,3,0,0,2,0,2,0,2,2,0,0,0,0,0,0,0,0,0,0,0,0,0,0,0,0,0,0,0,0],"split_type":[0,0,0,0,0,0,0,0,0,0,0,0,0,0,0,0,0,0,0,0,0,0,0,0,0,0,0,0,0,0,0,0,0,0,0,0,0,0,0,0,0,0,0,0,0,0,0,0,0,0,0,0,0,0,0,0,0],"sum_hessian":[2.6624734E3,1.7890612E3,8.7341235E2,1.1051478E3,6.8391327E2,4.0655346E1,8.3275696E2,4.7137616E2,2.1253711E2,4.0655346E0,3.658981E1,4.042948E1,7.923275E2,4.60083E2,1.1293152E1,1.7820593E2,3.433118E1,1.3551782E0,3.5234634E1,3.8848442E1,1.5810413E0,7.71774E2,2.0553535E1,1.2738676E2,3.3269626E2,2.2586303E0,9.034521E0,6.550028E1,1.1270565E2,3.184669E1,2.4844933E0,1.0841426E1,2.4393208E1,8.582795E0,3.0265646E1,9.463661E1,6.771373E2,1.9198357E1,1.3551782E0,1.2241777E2,4.9689865E0,1.9650084E1,4.5850197E1,7.498653E1,3.7719128E1,9.034521E0,1.8069043E0,3.1620824E0,2.1231125E1,5.646576E0,2.9362195E0,1.6488E1,1.3777645E1,4.404329E1,5.059332E1,1.21062584E2,5.5607477E2],"tree_param":{"num_deleted":"0","num_feature":"8","num_nodes":"57","size_leaf_vector":"1"}},{"base_weights":[-2.3160432E-2,-1.2584677E0,2.4478946E0,-3.0174136E-2,-8.54147E-1,1.5848285E0,2.4878702E0,-1.4434526E0,4.3809697E-1,-2.4251532E-2,1.9135808E0,1.6021484E0,2.5307524E0,-1.4634874E0,-5.7800853E-1,7.516864E-1,-1.1847045E0,-1.7413598E-2,2.0396593E0,1.7239189E0,-1.8532095E-2,2.5494885E0,1.7392787E0,-1.3427836E0,-3.0110972E-2,3.9329343E-2,-2.7195944E-2,6.1718E-4,1.1812103E0,-2.928274E-2,3.4857217E-2,5.4111207E-1,2.2350447E0,7.0430374E-1,1.9795549E0,2.1807306E0,2.5976503E0,3.90807E-2,-1.7413598E-2,-2.833823E-2,7.950025E-3,-1.9097768E-2,8.364863E-3,3.2078616E-2,6.290902E-3,3.9503075E-2,-2.1283204E-2,2.1243533E-2,5.072153E-2,3.337442E-2,-2.2546617E-2,4.9585298E-2,2.5019208E-2,3.5649918E-2,4.9706127E-2,4.5175392E-2,5.334254E-2],"categories":[],"categories_nodes":[],"categories_segments":[],"categories_sizes":[],"default_left":[0,0,0,0,0,0,0,0,0,0,0,0,0,0,0,0,0,0,0,0,0,0,0,0,0,0,0,0,0,0,0,0,0,0,0,0,0,0,0,0,0,0,0,0,0,0,0,0,0,0,0,0,0,0,0,0,0],"id":1,"left_children":[1,3,5,-1,7,9,11,13,15,-1,17,19,21,23,25,27,29,-1,31,33,-1,35,37,39,-1,-1,-1,41,43,-1,-1,45,47,49,51,53,55,-1,-1,-1,-1,-1,-1,-1,-1,-1,-1,-1,-1,-1,-1,-1,-1,-1,-1,-1,-1],"loss_changes":[8.1297627E3,1.7836377E2,2.6683105E1,0E0,5.19331E2,4.0991737E1,2.8101562E1,7.269226E0,1.098439E2,0E0,1.5120773E1,1.4475311E1,7.5151367E0,2.9742432E-1,2.7027086E1,5.807997E1,3.123322E1,0E0,9.526794E0,9.096832E0,0E0,8.276855E0,1.390963E1,1.6984344E1,0E0,0E0,0E0,2.6936632E1,4.145662E1,0E0,0E0,1.4875577E1,8.646561E0,1.8875723E1,8.414139E0,7.3248596E0,1.0200195E1,0E0,0E0,0E0,0E0,0E0,0E0,0E0,0E0,0E0,0E0,0E0,0E0,0E0,0E0,0E0,0E0,0E0,0E0,0E0,0E0],"parents":[2147483647,0,0,1,1,2,2,4,4,5,5,6,6,7,7,8,8,10,10,11,11,12,12,13,13,14,14,15,15,16,16,18,18,19,19,21,21,22,22,23,23,27,27,28,28,31,31,32,32,33,33,34,34,35,35,36,36],"right_children":[2,4,6,-1,8,10,12,14,16,-1,18,20,22,24,26,28,30,-1,32,34,-1,36,38,40,-1,-1,-1,42,44,-1,-1,46,48,50,52,54,56,-1,-1,-1,-1,-1,-1,-1,-1,-1,-1,-1,-1,-1,-1,-1,-1,-1,-1,-1,-1],"split_conditions":[1E0,2.1E1,2E1,-3.0174136E-2,9.49E1,1.075E2,1.003E2,9.45E1,4.2E1,-2.4251532E-2,1.7E1,9.52E1,3.7E1,8.42E1,7.58E1,3E1,1.05E2,-1.7413598E-2,8.59E1,8.48E1,-1.8532095E-2,2.3E1,9.37E1,8.41E1,-3.0110972E-2,3.9329343E-2,-2.7195944E-2,2.238E3,3.7E1,-2.928274E-2,3.4857217E-2,8.04E1,1.107E2,9.95E1,8.83E1,1.075E2,1.026E2,3.90807E-2,-1.7413598E-2,-2.833823E-2,7.950025E-3,-1.9097768E-2,8.364863E-3,3.2078616E-2,6.290902E-3,3.9503075E-2,-2.1283204E-2,2.1243533E-2,5.072153E-2,3.337442E-2,-2.2546617E-2,4.9585298E-2,2.5019208E-2,3.5649918E-2,4.9706127E-2,4.5175392E-2,5.334254E-2],"split_indices":[5,3,3,0,2,2,2,2,3,0,3,0,3,0,0,3,2,0,0,0,0,3,0,0,0,0,0,1,3,0,0,0,2,2,0,2,2,0,0,0,0,0,0,0,0,0,0,0,0,0,0,0,0,0,0,0,0],"split_type":[0,0,0,0,0,0,0,0,0,0,0,0,0,0,0,0,0,0,0,0,0,0,0,0,0,0,0,0,0,0,0,0,0,0,0,0,0,0,0,0,0,0,0,0,0,0,0,0,0,0,0,0,0,0,0,0,0],"sum_hessian":[2.661293E3,1.7746279E3,8.866651E2,1.094498E3,6.8012994E2,4.1049946E1,8.456152E2,4.670313E2,2.130986E2,4.034166E0,3.701578E1,4.082122E1,8.0479395E2,4.5578894E2,1.1242393E1,1.7903815E2,3.406045E1,1.3477104E0,3.566807E1,3.924946E1,1.5717604E0,7.8401306E2,2.0780859E1,1.2629185E2,3.294971E2,2.2861974E0,8.956195E0,6.550208E1,1.1353607E2,3.1549019E1,2.511435E0,4.54889E0,3.1119179E1,8.620665E0,3.0628794E1,9.591382E1,6.8809924E2,1.9433147E1,1.3477104E0,1.2131041E2,4.981437E0,1.9530619E1,4.5971466E1,7.5741875E1,3.779419E1,2.2808852E0,2.2680051E0,7.280735E0,2.3838444E1,5.705481E0,2.9151833E0,1.6742834E1,1.3885961E1,4.4535637E1,5.1378185E1,1.2277281E2,5.653264E2],"tree_param":{"num_deleted":"0","num_feature":"8","num_nodes":"57","size_leaf_vector":"1"}},{"base_weights":[-2.2823744E-2,-1.2438442E0,2.367104E0,-2.9870905E-2,-8.4207255E-1,1.5410584E0,2.4051611E0,-1.4283572E0,4.2841467E-1,-2.4016475E-2,1.8580898E0,1.558196E0,2.4459417E0,-1.4483762E0,-5.681015E-1,7.335794E-1,-1.1702931E0,-1.7269751E-2,1.9798013E0,1.6760913E0,-1.8373324E-2,2.4637764E0,1.6890886E0,-1.3278636E0,-2.9808361E-2,3.847897E-2,-2.6924666E-2,4.1891946E-4,1.1500198E0,-2.898846E-2,3.4111183E-2,5.323836E-1,2.1664948E0,6.888119E-1,1.9218671E0,2.1123264E0,2.5095677E0,1.8965673E0,-1.7269751E-2,-2.8037483E-2,7.8016585E-3,-1.8846028E-2,8.18047E-3,3.1156654E-2,6.1566373E-3,3.8644336E-2,-2.1084743E-2,2.0754142E-2,4.9075484E-2,3.2536782E-2,-2.2333873E-2,4.8018694E-2,2.4383156E-2,2.558119E-2,4.4629514E-2,4.3723214E-2,5.151476E-2,2.0405872E-2,4.0280607E-2],"categories":[],"categories_nodes":[],"categories_segments":[],"categories_sizes":[],"default_left":[0,0,0,0,0,0,0,0,0,0,0,0,0,0,0,0,0,0,0,0,0,0,0,0,0,0,0,0,0,0,0,0,0,0,0,0,0,0,0,0,0,0,0,0,0,0,0,0,0,0,0,0,0,0,0,0,0,0,0],"id":2,"left_children":[1,3,5,-1,7,9,11,13,15,-1,17,19,21,23,25,27,29,-1,31,33,-1,35,37,39,-1,-1,-1,41,43,-1,-1,45,47,49,51,53,55,57,-1,-1,-1,-1,-1,-1,-1,-1,-1,-1,-1,-1,-1,-1,-1,-1,-1,-1,-1,-1,-1],"loss_changes":[7.7635005E3,1.7539136E2,2.4574219E1,0E0,5.050251E2,3.9091644E1,2.5830566E1,7.1608276E0,1.0555221E2,0E0,1.4430054E1,1.3856316E1,6.866699E0,3.1311035E-1,2.622476E1,5.5204636E1,3.0392658E1,0E0,8.861557E0,8.53167E0,0E0,7.510254E0,1.3283558E1,1.6589523E1,0E0,0E0,0E0,2.600088E1,3.9125244E1,0E0,0E0,1.4385844E1,7.993286E0,1.8167377E1,7.832649E0,6.883484E0,9.326172E0,7.055664E-2,0E0,0E0,0E0,0E0,0E0,0E0,0E0,0E0,0E0,0E0,0E0,0E0,0E0,0E0,0E0,0E0,0E0,0E0,0E0,0E0,0E0],"parents":[2147483647,0,0,1,1,2,2,4,4,5,5,6,6,7,7,8,8,10,10,11,11,12,12,13,13,14,14,15,15,16,16,18,18,19,19,21,21,22,22,23,23,27,27,28,28,31,31,32,32,33,33,34,34,35,35,36,36,37,37],"right_children":[2,4,6,-1,8,10,12,14,16,-1,18,20,22,24,26,28,30,-1,32,34,-1,36,38,40,-1,-1,-1,42,44,-1,-1,46,48,50,52,54,56,58,-1,-1,-1,-1,-1,-1,-1,-1,-1,-1,-1,-1,-1,-1,-1,-1,-1,-1,-1,-1,-1],"split_conditions":[1E0,2.1E1,2E1,-2.9870905E-2,9.49E1,1.075E2,1.003E2,9.45E1,4.2E1,-2.4016475E-2,1.7E1,9.52E1,3.7E1,8.42E1,7.58E1,3E1,1.05E2,-1.7269751E-2,8.59E1,8.48E1,-1.8373324E-2,2.3E1,9.37E1,8.41E1,-2.9808361E-2,3.847897E-2,-2.6924666E-2,2.238E3,3.7E1,-2.898846E-2,3.4111183E-2,8.04E1,1.107E2,9.95E1,8.83E1,1.046E2,1.026E2,8.67E1,-1.7269751E-2,-2.8037483E-2,7.8016585E-3,-1.8846028E-2,8.18047E-3,3.1156654E-2,6.1566373E-3,3.8644336E-2,-2.1084743E-2,2.0754142E-2,4.9075484E-2,3.2536782E-2,-2.2333873E-2,4.8018694E-2,2.4383156E-2,2.558119E-2,4.4629514E-2,4.3723214E-2,5.151476E-2,2.0405872E-2,4.0280607E-2],"split_indices":[5,3,3,0,2,2,2,2,3,0,3,0,3,0,0,3,2,0,0,0,0,3,0,0,0,0,0,1,3,0,0,0,2,2,0,2,2,0,0,0,0,0,0,0,0,0,0,0,0,0,0,0,0,0,0,0,0,0,0],"split_type":[0,0,0,0,0,0,0,0,0,0,0,0,0,0,0,0,0,0,0,0,0,0,0,0,0,0,0,0,0,0,0,0,0,0,0,0,0,0,0,0,0,0,0,0,0,0,0,0,0,0,0,0,0,0,0,0,0,0,0],"sum_hessian":[2.658409E3,1.7598013E3,8.986075E2,1.083616E3,6.761853E2,4.1404217E1,8.572033E2,4.625915E2,2.135938E2,4.0022845E0,3.740193E1,4.1178455E1,8.1602484E2,4.514033E2,1.1188204E1,1.7981204E2,3.3781757E1,1.3401623E0,3.606177E1,3.9616085E1,1.5623717E0,7.950351E2,2.0989763E1,1.2517504E2,3.2622824E2,2.311823E0,8.876381E0,6.549913E1,1.14312904E2,3.1245111E1,2.5366457E0,4.5600204E0,3.1501749E1,8.654327E0,3.0961756E1,9.7079254E1,6.979558E2,1.9649601E1,1.3401623E0,1.201815E2,4.993541E0,1.9410246E1,4.6088886E1,7.644579E1,3.7867115E1,2.306892E0,2.2531283E0,7.3264794E0,2.417527E1,5.7604933E0,2.8938339E0,1.6973501E1,1.39882555E1,1.3612902E1,8.346635E1,1.2433039E2,5.736254E2,3.4675765E0,1.6182024E1],"tree_param":{"num_deleted":"0","num_feature":"8","num_nodes":"59","size_leaf_vector":"1"}},{"base_weights":[-2.2493238E-2,-1.229735E0,2.2925477E0,-2.957959E-2,-8.3038455E-1,1.4999652E0,2.3288894E0,-1.41382E0,4.190711E-1,-2.3787536E-2,1.8061869E0,1.5167156E0,2.36781E0,-1.4338257E0,-5.585504E-1,7.161431E-1,-1.1563895E0,-1.7128304E-2,1.9238997E0,1.631017E0,-1.82174E-2,2.384808E0,1.6432667E0,-1.3134253E0,-2.9517576E-2,3.7669037E-2,-2.6662003E-2,2.2600646E-4,1.1202013E0,-2.870501E-2,3.33974E-2,5.239319E-1,2.1026807E0,6.739117E-1,1.8677232E0,2.0483153E0,2.4285748E0,1.8441712E0,-1.7128304E-2,-2.7746942E-2,7.656475E-3,-1.8599074E-2,8.000818E-3,3.0282814E-2,6.0255774E-3,3.7826605E-2,-2.0890567E-2,2.0281868E-2,4.7555473E-2,3.1739105E-2,-2.212608E-2,4.6568044E-2,2.377334E-2,3.3494283E-2,4.6670537E-2,4.2373054E-2,4.983783E-2,2.0002544E-2,3.9122235E-2],"categories":[],"categories_nodes":[],"categories_segments":[],"categories_sizes":[],"default_left":[0,0,0,0,0,0,0,0,0,0,0,0,0,0,0,0,0,0,0,0,0,0,0,0,0,0,0,0,0,0,0,0,0,0,0,0,0,0,0,0,0,0,0,0,0,0,0,0,0,0,0,0,0,0,0,0,0,0,0],"id":3,"left_children":[1,3,5,-1,7,9,11,13,15,-1,17,19,21,23,25,27,29,-1,31,33,-1,35,37,39,-1,-1,-1,41,43,-1,-1,45,47,49,51,53,55,57,-1,-1,-1,-1,-1,-1,-1,-1,-1,-1,-1,-1,-1,-1,-1,-1,-1,-1,-1,-1,-1],"loss_changes":[7.42284E3,1.7252344E2,2.272754E1,0E0,4.9126074E2,3.7329056E1,2.3864746E1,7.053894E0,1.0146579E2,0E0,1.379258E1,1.3279167E1,6.267578E0,3.2946777E-1,2.5455612E1,5.251145E1,2.9583927E1,0E0,8.263336E0,8.018639E0,0E0,6.894043E0,1.2715595E1,1.6209656E1,0E0,0E0,0E0,2.5100262E1,3.6978577E1,0E0,0E0,1.3919509E1,7.4254E0,1.7496113E1,7.3259735E0,6.656372E0,8.609375E0,1.2886047E-2,0E0,0E0,0E0,0E0,0E0,0E0,0E0,0E0,0E0,0E0,0E0,0E0,0E0,0E0,0E0,0E0,0E0,0E0,0E0,0E0,0E0],"parents":[2147483647,0,0,1,1,2,2,4,4,5,5,6,6,7,7,8,8,10,10,11,11,12,12,13,13,14,14,15,15,16,16,18,18,19,19,21,21,22,22,23,23,27,27,28,28,31,31,32,32,33,33,34,34,35,35,36,36,37,37],"right_children":[2,4,6,-1,8,10,12,14,16,-1,18,20,22,24,26,28,30,-1,32,34,-1,36,38,40,-1,-1,-1,42,44,-1,-1,46,48,50,52,54,56,58,-1,-1,-1,-1,-1,-1,-1,-1,-1,-1,-1,-1,-1,-1,-1,-1,-1,-1,-1,-1,-1],"split_conditions":[1E0,2.1E1,2E1,-2.957959E-2,9.49E1,1.075E2,1.003E2,9.45E1,4.2E1,-2.3787536E-2,1.7E1,9.52E1,3.7E1,8.42E1,7.58E1,3E1,1.05E2,-1.7128304E-2,8.59E1,8.48E1,-1.82174E-2,2.3E1,9.37E1,8.41E1,-2.9517576E-2,3.7669037E-2,-2.6662003E-2,2.238E3,3.7E1,-2.870501E-2,3.33974E-2,8.04E1,1.107E2,9.95E1,8.83E1,1.075E2,1.026E2,8.67E1,-1.7128304E-2,-2.7746942E-2,7.656475E-3,-1.8599074E-2,8.000818E-3,3.0282814E-2,6.0255774E-3,3.7826605E-2,-2.0890567E-2,2.0281868E-2,4.7555473E-2,3.1739105E-2,-2.212608E-2,4.6568044E-2,2.377334E-2,3.3494283E-2,4.6670537E-2,4.2373054E-2,4.983783E-2,2.0002544E-2,3.9122235E-2],"split_indices":[5,3,3,0,2,2,2,2,3,0,3,0,3,0,0,3,2,0,0,0,0,3,0,0,0,0,0,1,3,0,0,0,2,2,0,2,2,0,0,0,0,0,0,0,0,0,0,0,0,0,0,0,0,0,0,0,0,0,0],"split_type":[0,0,0,0,0,0,0,0,0,0,0,0,0,0,0,0,0,0,0,0,0,0,0,0,0,0,0,0,0,0,0,0,0,0,0,0,0,0,0,0,0,0,0,0,0,0,0,0,0,0,0,0,0,0,0,0,0,0,0],"sum_hessian":[2.6539246E3,1.7446156E3,9.09309E2,1.0725237E3,6.7209186E2,4.1719307E1,8.6758966E2,4.5806573E2,2.1402612E2,3.9699373E0,3.774937E1,4.1502815E1,8.2608685E2,4.4693497E2,1.11307745E1,1.805304E2,3.3495728E1,1.3325398E0,3.6416832E1,3.9949932E1,1.5528837E0,8.0491187E2,2.1174992E1,1.2403847E2,3.228965E2,2.3355558E0,8.795218E0,6.549169E1,1.150387E2,3.0935556E1,2.5601728E0,4.5690327E0,3.18478E1,8.683964E0,3.1265966E1,9.81444E1,7.0676746E2,1.9842451E1,1.3325398E0,1.19033165E2,5.005307E0,1.9289112E1,4.6202583E1,7.7100746E1,3.7937946E1,2.3309963E0,2.2380362E0,7.3699765E0,2.4477821E1,5.8117647E0,2.8721993E0,1.7181183E1,1.4084784E1,4.546335E1,5.2681057E1,1.2574331E2,5.810242E2,3.4867136E0,1.6355738E1],"tree_param":{"num_deleted":"0","num_feature":"8","num_nodes":"59","size_leaf_vector":"1"}},{"base_weights":[-2.2168132E-2,-1.2161115E0,2.2235327E0,-2.9299548E-2,-8.190607E-1,1.4613014E0,2.2583344E0,-1.3998109E0,4.1004616E-1,-2.3564443E-2,1.7575245E0,1.477493E0,2.2956035E0,-1.419806E0,-5.493356E-1,6.99337E-1,-1.1429662E0,-1.6989179E-2,1.8715646E0,1.5884526E0,-1.8064234E-2,2.1733162E0,2.4060469E0,-1.2994419E0,-2.9237997E-2,3.6896892E-2,-2.6407517E-2,3.8663646E-5,1.0916575E0,-2.8431812E-2,3.2713845E-2,5.157448E-1,2.0431154E0,6.595666E-1,1.8167918E0,1.8290424E0,2.2487447E0,1.9887856E0,2.4480429E0,-2.7466044E-2,7.514385E-3,-1.8356709E-2,7.825754E-3,2.9453104E-2,5.897631E-3,3.7047166E-2,-2.0700516E-2,1.9825773E-2,4.6147514E-2,3.0978464E-2,-2.1923041E-2,4.5220904E-2,2.3188056E-2,3.7644554E-2,-1.7750401E-2,4.5464303E-2,2.6366442E-2,2.46059E-2,4.3511827E-2,4.925688E-2,2.6928615E-2],"categories":[],"categories_nodes":[],"categories_segments":[],"categories_sizes":[],"default_left":[0,0,0,0,0,0,0,0,0,0,0,0,0,0,0,0,0,0,0,0,0,0,0,0,0,0,0,0,0,0,0,0,0,0,0,0,0,0,0,0,0,0,0,0,0,0,0,0,0,0,0,0,0,0,0,0,0,0,0,0,0],"id":4,"left_children":[1,3,5,-1,7,9,11,13,15,-1,17,19,21,23,25,27,29,-1,31,33,-1,35,37,39,-1,-1,-1,41,43,-1,-1,45,47,49,51,53,55,57,59,-1,-1,-1,-1,-1,-1,-1,-1,-1,-1,-1,-1,-1,-1,-1,-1,-1,-1,-1,-1,-1,-1],"loss_changes":[7.1051367E3,1.6975586E2,2.1100098E1,0E0,4.7801007E2,3.5689713E1,2.2154785E1,6.9483643E0,9.7572075E1,0E0,1.32024E1,1.2739738E1,6.0620117E0,3.468628E-1,2.4717752E1,4.9985252E1,2.8805317E1,0E0,7.7231445E0,7.5514145E0,0E0,6.458252E0,2.6657715E0,1.5843887E1,0E0,0E0,0E0,2.4233276E1,3.4997177E1,0E0,0E0,1.3475052E1,6.9295197E0,1.6859234E1,6.882576E0,1.3014954E1,4.506714E0,3.6494446E0,2.982666E0,0E0,0E0,0E0,0E0,0E0,0E0,0E0,0E0,0E0,0E0,0E0,0E0,0E0,0E0,0E0,0E0,0E0,0E0,0E0,0E0,0E0,0E0],"parents":[2147483647,0,0,1,1,2,2,4,4,5,5,6,6,7,7,8,8,10,10,11,11,12,12,13,13,14,14,15,15,16,16,18,18,19,19,21,21,22,22,23,23,27,27,28,28,31,31,32,32,33,33,34,34,35,35,36,36,37,37,38,38],"right_children":[2,4,6,-1,8,10,12,14,16,-1,18,20,22,24,26,28,30,-1,32,34,-1,36,38,40,-1,-1,-1,42,44,-1,-1,46,48,50,52,54,56,58,60,-1,-1,-1,-1,-1,-1,-1,-1,-1,-1,-1,-1,-1,-1,-1,-1,-1,-1,-1,-1,-1,-1],"split_conditions":[1E0,2.1E1,2E1,-2.9299548E-2,9.49E1,1.075E2,1.003E2,9.45E1,4.2E1,-2.3564443E-2,1.7E1,9.52E1,1.056E2,8.42E1,7.58E1,3E1,1.05E2,-1.6989179E-2,8.59E1,8.48E1,-1.8064234E-2,2.5E1,2.2E1,8.41E1,-2.9237997E-2,3.6896892E-2,-2.6407517E-2,2.238E3,3.7E1,-2.8431812E-2,3.2713845E-2,8.04E1,1.107E2,9.95E1,8.83E1,2.735E3,3.7E1,1.075E2,4E1,-2.7466044E-2,7.514385E-3,-1.8356709E-2,7.825754E-3,2.9453104E-2,5.897631E-3,3.7047166E-2,-2.0700516E-2,1.9825773E-2,4.6147514E-2,3.0978464E-2,-2.1923041E-2,4.5220904E-2,2.3188056E-2,3.7644554E-2,-1.7750401E-2,4.5464303E-2,2.6366442E-2,2.46059E-2,4.3511827E-2,4.925688E-2,2.6928615E-2],"split_indices":[5,3,3,0,2,2,2,2,3,0,3,0,2,0,0,3,2,0,0,0,0,3,3,0,0,0,0,1,3,0,0,0,2,2,0,1,3,2,3,0,0,0,0,0,0,0,0,0,0,0,0,0,0,0,0,0,0,0,0,0,0],"split_type":[0,0,0,0,0,0,0,0,0,0,0,0,0,0,0,0,0,0,0,0,0,0,0,0,0,0,0,0,0,0,0,0,0,0,0,0,0,0,0,0,0,0,0,0,0,0,0,0,0,0,0,0,0,0,0,0,0,0,0,0,0],"sum_hessian":[2.647936E3,1.7291038E3,9.188323E2,1.0612422E3,6.678615E2,4.199716E1,8.768351E2,4.534626E2,2.1439894E2,3.9371686E0,3.8059994E1,4.1795845E1,8.3503925E2,4.4239227E2,1.1070288E1,1.8119595E2,3.3202988E1,1.3248495E0,3.673514E1,4.025254E1,1.5433048E0,4.0608423E2,4.2895505E2,1.22884224E2,3.1950806E2,2.357445E0,8.712843E0,6.548004E1,1.15715904E2,3.0620926E1,2.5820637E0,4.5759935E0,3.215915E1,8.709744E0,3.1542795E1,7.751874E1,3.285655E2,4.3646973E1,3.8530807E2,1.1786748E2,5.0167475E0,1.9167347E1,4.63127E1,7.770913E1,3.800677E1,2.3532472E0,2.2227464E0,7.411313E0,2.4747835E1,5.859439E0,2.8503058E0,1.7367002E1,1.4175793E1,7.633144E1,1.1872984E0,3.1873926E2,9.826233E0,1.0124456E1,3.3522514E1,3.7898047E2,6.3275914E0],"tree_param":{"num_deleted":"0","num_feature":"8","num_nodes":"61","size_leaf_vector":"1"}},{"base_weights":[-2.184233E-2,-1.2029463E0,2.1594274E0,-2.9030183E-2,-8.0808014E-1,1.4248487E0,2.1928391E0,-1.3863018E0,4.0132108E-1,-2.3346938E-2,1.711798E0,1.4403371E0,2.2286336E0,-1.4062886E0,-5.404393E-1,6.831237E-1,-1.1299978E0,-1.6852312E-2,1.8224552E0,1.5481822E0,-1.7913736E-2,2.110628E0,2.3351545E0,-1.2858895E0,-2.896902E-2,3.616006E-2,-2.6160812E-2,-4.773144E-1,9.057242E-1,-2.8168347E-2,3.2058645E-2,5.078107E-1,1.9873756E0,6.457427E-1,1.7687808E0,1.7784239E0,2.183319E0,1.9344219E0,2.3754053E0,-2.7194282E-2,7.3753027E-3,1.023941E-3,-2.7388813E-2,1.06877815E-2,3.148782E-2,3.6303516E-2,-2.0514436E-2,1.9384991E-2,4.4839576E-2,3.0252181E-2,-2.1724558E-2,4.3966517E-2,2.262573E-2,-1.7990408E-2,3.6620166E-2,4.4136066E-2,2.5735378E-2,3.0847961E-2,4.660951E-2,4.779129E-2,2.631297E-2],"categories":[],"categories_nodes":[],"categories_segments":[],"categories_sizes":[],"default_left":[0,0,0,0,0,0,0,0,0,0,0,0,0,0,0,0,0,0,0,0,0,0,0,0,0,0,0,0,0,0,0,0,0,0,0,0,0,0,0,0,0,0,0,0,0,0,0,0,0,0,0,0,0,0,0,0,0,0,0,0,0],"id":5,"left_children":[1,3,5,-1,7,9,11,13,15,-1,17,19,21,23,25,27,29,-1,31,33,-1,35,37,39,-1,-1,-1,41,43,-1,-1,45,47,49,51,53,55,57,59,-1,-1,-1,-1,-1,-1,-1,-1,-1,-1,-1,-1,-1,-1,-1,-1,-1,-1,-1,-1,-1,-1],"loss_changes":[6.8080586E3,1.6708398E2,1.9658203E1,0E0,4.6524628E2,3.4161148E1,2.0654785E1,6.8442993E0,9.385953E1,0E0,1.2654404E1,1.2234512E1,5.680664E0,3.647461E-1,2.4009426E1,4.7655045E1,2.8055279E1,0E0,7.233673E0,7.1245728E0,0E0,6.0372314E0,2.407959E0,1.5491486E1,0E0,0E0,0E0,1.4252054E1,3.7330475E1,0E0,0E0,1.3051083E1,6.494583E0,1.6254293E1,6.493004E0,1.2791809E1,4.1643066E0,3.3946075E0,2.7104492E0,0E0,0E0,0E0,0E0,0E0,0E0,0E0,0E0,0E0,0E0,0E0,0E0,0E0,0E0,0E0,0E0,0E0,0E0,0E0,0E0,0E0,0E0],"parents":[2147483647,0,0,1,1,2,2,4,4,5,5,6,6,7,7,8,8,10,10,11,11,12,12,13,13,14,14,15,15,16,16,18,18,19,19,21,21,22,22,23,23,27,27,28,28,31,31,32,32,33,33,34,34,35,35,36,36,37,37,38,38],"right_children":[2,4,6,-1,8,10,12,14,16,-1,18,20,22,24,26,28,30,-1,32,34,-1,36,38,40,-1,-1,-1,42,44,-1,-1,46,48,50,52,54,56,58,60,-1,-1,-1,-1,-1,-1,-1,-1,-1,-1,-1,-1,-1,-1,-1,-1,-1,-1,-1,-1,-1,-1],"split_conditions":[1E0,2.1E1,2E1,-2.9030183E-2,9.49E1,1.075E2,1.003E2,9.45E1,4.2E1,-2.3346938E-2,1.7E1,9.52E1,1.056E2,8.42E1,7.58E1,2.4E1,1.05E2,-1.6852312E-2,8.59E1,8.48E1,-1.7913736E-2,2.5E1,2.2E1,8.41E1,-2.896902E-2,3.616006E-2,-2.6160812E-2,9.9E1,9.94E1,-2.8168347E-2,3.2058645E-2,8.04E1,1.107E2,9.95E1,8.83E1,1.017E2,3.7E1,1.099E2,4E1,-2.7194282E-2,7.3753027E-3,1.023941E-3,-2.7388813E-2,1.06877815E-2,3.148782E-2,3.6303516E-2,-2.0514436E-2,1.9384991E-2,4.4839576E-2,3.0252181E-2,-2.1724558E-2,4.3966517E-2,2.262573E-2,-1.7990408E-2,3.6620166E-2,4.4136066E-2,2.5735378E-2,3.0847961E-2,4.660951E-2,4.779129E-2,2.631297E-2],"split_indices":[5,3,3,0,2,2,2,2,3,0,3,0,2,0,0,3,2,0,0,0,0,3,3,0,0,0,0,2,2,0,0,0,2,2,0,2,3,2,3,0,0,0,0,0,0,0,0,0,0,0,0,0,0,0,0,0,0,0,0,0,0],"split_type":[0,0,0,0,0,0,0,0,0,0,0,0,0,0,0,0,0,0,0,0,0,0,0,0,0,0,0,0,0,0,0,0,0,0,0,0,0,0,0,0,0,0,0,0,0,0,0,0,0,0,0,0,0,0,0,0,0,0,0,0,0],"sum_hessian":[2.6405574E3,1.7132974E3,9.2725995E2,1.0497917E3,6.6350555E2,4.2239647E1,8.8502026E2,4.4879016E2,2.147154E2,3.9040203E0,3.833563E1,4.205905E1,8.4296124E2,4.3778323E2,1.100692E1,1.8181128E2,3.2904114E1,1.3170967E0,3.701853E1,4.0525406E1,1.5336435E0,4.0979593E2,4.331653E2,1.217142E2,3.1606903E2,2.377542E0,8.629378E0,2.9078419E1,1.5273286E2,3.0301748E1,2.6023664E0,4.580972E0,3.2437557E1,8.731838E0,3.1793568E1,7.814294E1,3.3165298E2,4.4014973E1,3.8915033E2,1.1668634E2,5.027869E0,1.8852486E1,1.0225934E1,9.935602E1,5.3376846E1,2.3736959E0,2.2072763E0,7.4505734E0,2.4986984E1,5.9036593E0,2.828179E0,1.7532051E1,1.4261517E1,1.1947026E0,7.6948235E1,3.2176328E2,9.889706E0,2.4579742E1,1.943523E1,3.8278125E2,6.369094E0],"tree_param":{"num_deleted":"0","num_feature":"8","num_nodes":"61","size_leaf_vector":"1"}},{"base_weights":[-2.152535E-2,-1.190173E0,2.0997255E0,-2.8770953E-2,-7.973562E-1,1.3904134E0,2.1318786E0,-1.3732668E0,3.927179E-1,-2.3134777E-2,1.6687391E0,1.4050772E0,2.166353E0,-1.3932477E0,-5.318441E-1,6.671795E-1,-1.1174604E0,-1.6717637E-2,1.776272E0,1.5100132E0,-1.7765827E-2,2.0520897E0,2.2694693E0,-1.2727448E0,-2.8710118E-2,3.545629E-2,-2.5921501E-2,-3.0310461E-3,1.0395166E0,-2.7914109E-2,3.1430062E-2,5.00119E-1,1.9350923E0,6.3240826E-1,1.723432E0,1.7306522E0,2.122366E0,1.8835673E0,2.3081717E0,-2.6931174E-2,7.2391485E-3,-1.8073497E-2,7.5334976E-3,2.8183408E-2,5.295555E-3,3.559336E-2,-2.0332176E-2,1.8958714E-2,4.362131E-2,2.9557835E-2,-2.1530451E-2,4.279553E-2,2.2084929E-2,3.5638865E-2,-1.7915431E-2,4.2899538E-2,2.5129883E-2,2.3319809E-2,4.1200306E-2,4.6435382E-2,2.5721649E-2],"categories":[],"categories_nodes":[],"categories_segments":[],"categories_sizes":[],"default_left":[0,0,0,0,0,0,0,0,0,0,0,0,0,0,0,0,0,0,0,0,0,0,0,0,0,0,0,0,0,0,0,0,0,0,0,0,0,0,0,0,0,0,0,0,0,0,0,0,0,0,0,0,0,0,0,0,0,0,0,0,0],"id":6,"left_children":[1,3,5,-1,7,9,11,13,15,-1,17,19,21,23,25,27,29,-1,31,33,-1,35,37,39,-1,-1,-1,41,43,-1,-1,45,47,49,51,53,55,57,59,-1,-1,-1,-1,-1,-1,-1,-1,-1,-1,-1,-1,-1,-1,-1,-1,-1,-1,-1,-1,-1,-1],"loss_changes":[6.5295254E3,1.645481E2,1.8374512E1,0E0,4.5295706E2,3.2732628E1,1.9336182E1,6.741516E0,9.0293274E1,0E0,1.2144264E1,1.17603E1,5.368408E0,3.8354492E-1,2.3329012E1,4.5780937E1,2.7332321E1,0E0,6.788498E0,6.7334976E0,0E0,5.680664E0,2.1914062E0,1.5151703E1,0E0,0E0,0E0,2.3086542E1,3.3400986E1,0E0,0E0,1.2646319E1,6.1116104E0,1.5679081E1,6.149414E0,1.2333496E1,3.8706055E0,3.339203E0,2.4824219E0,0E0,0E0,0E0,0E0,0E0,0E0,0E0,0E0,0E0,0E0,0E0,0E0,0E0,0E0,0E0,0E0,0E0,0E0,0E0,0E0,0E0,0E0],"parents":[2147483647,0,0,1,1,2,2,4,4,5,5,6,6,7,7,8,8,10,10,11,11,12,12,13,13,14,14,15,15,16,16,18,18,19,19,21,21,22,22,23,23,27,27,28,28,31,31,32,32,33,33,34,34,35,35,36,36,37,37,38,38],"right_children":[2,4,6,-1,8,10,12,14,16,-1,18,20,22,24,26,28,30,-1,32,34,-1,36,38,40,-1,-1,-1,42,44,-1,-1,46,48,50,52,54,56,58,60,-1,-1,-1,-1,-1,-1,-1,-1,-1,-1,-1,-1,-1,-1,-1,-1,-1,-1,-1,-1,-1,-1],"split_conditions":[1E0,2.1E1,2E1,-2.8770953E-2,9.49E1,1.075E2,1.003E2,9.45E1,4.2E1,-2.3134777E-2,1.7E1,9.52E1,1.056E2,8.42E1,7.58E1,3E1,1.05E2,-1.6717637E-2,8.59E1,8.48E1,-1.7765827E-2,2.5E1,2.2E1,8.41E1,-2.8710118E-2,3.545629E-2,-2.5921501E-2,2.238E3,3.7E1,-2.7914109E-2,3.1430062E-2,8.04E1,1.107E2,9.95E1,8.83E1,2.735E3,3.7E1,1.075E2,4E1,-2.6931174E-2,7.2391485E-3,-1.8073497E-2,7.5334976E-3,2.8183408E-2,5.295555E-3,3.559336E-2,-2.0332176E-2,1.8958714E-2,4.362131E-2,2.9557835E-2,-2.1530451E-2,4.279553E-2,2.2084929E-2,3.5638865E-2,-1.7915431E-2,4.2899538E-2,2.5129883E-2,2.3319809E-2,4.1200306E-2,4.6435382E-2,2.5721649E-2],"split_indices":[5,3,3,0,2,2,2,2,3,0,3,0,2,0,0,3,2,0,0,0,0,3,3,0,0,0,0,1,3,0,0,0,2,2,0,1,3,2,3,0,0,0,0,0,0,0,0,0,0,0,0,0,0,0,0,0,0,0,0,0,0],"split_type":[0,0,0,0,0,0,0,0,0,0,0,0,0,0,0,0,0,0,0,0,0,0,0,0,0,0,0,0,0,0,0,0,0,0,0,0,0,0,0,0,0,0,0,0,0,0,0,0,0,0,0,0,0,0,0,0,0,0,0,0,0],"sum_hessian":[2.6319326E3,1.6972925E3,9.3464E2,1.0381912E3,6.591013E2,4.244856E1,8.9219147E2,4.4405606E2,2.1504526E2,3.8705342E0,3.8578022E1,4.2293873E1,8.498976E2,4.331152E2,1.0940845E1,1.8244559E2,3.259967E1,1.3092872E0,3.7268738E1,4.0769966E1,1.523907E0,4.1307254E2,4.36825E2,1.2053026E2,3.1258496E2,2.395899E0,8.544946E0,6.551314E1,1.1693246E2,2.997854E1,2.6211302E0,4.5840364E0,3.26847E1,8.750406E0,3.2019558E1,7.870564E1,3.343669E2,4.4343388E1,3.9248163E2,1.1549158E2,5.038683E0,1.9019615E1,4.6493526E1,7.860736E1,3.8325096E1,2.3923936E0,2.1916428E0,7.4878354E0,2.5196865E1,5.9445634E0,2.8058426E0,1.7677374E1,1.4342185E1,7.751343E1,1.1922128E0,3.24418E2,9.948918E0,1.0253342E1,3.4090046E1,3.8607382E2,6.407794E0],"tree_param":{"num_deleted":"0","num_feature":"8","num_nodes":"61","size_leaf_vector":"1"}},{"base_weights":[-2.1219725E-2,-1.1778446E0,2.0439572E0,-2.8521344E-2,-7.869946E-1,1.3578242E0,2.0749655E0,-1.3606813E0,3.845267E-1,-2.2927728E-2,1.6281111E0,1.3715614E0,2.1082532E0,-1.3806585E0,-5.2353436E-1,6.520213E-1,-1.1053313E0,-1.6585093E-2,1.7327515E0,1.4737741E0,-1.7620428E-2,1.997294E0,2.208385E0,-1.2599866E0,-2.8460763E-2,3.478348E-2,-2.5689228E-2,-4.696718E-1,8.647069E-1,-2.7668633E-2,3.0826503E-2,4.9265853E-1,1.8859417E0,8.7289727E-1,1.7903348E0,1.4439355E0,2.0340102E0,1.8353854E0,2.2457616E0,-2.6676275E-2,7.1058446E-3,9.334495E-4,-2.7042551E-2,1.011259E-2,3.015875E-2,3.4914564E-2,-2.0153595E-2,1.854619E-2,4.2483725E-2,2.9329976E-2,-2.4017325E-2,1.2209752E-2,3.9708648E-2,3.6687687E-2,1.5896907E-2,4.1041683E-2,2.4548292E-2,2.9241396E-2,4.425717E-2,4.5177333E-2,2.5153121E-2],"categories":[],"categories_nodes":[],"categories_segments":[],"categories_sizes":[],"default_left":[0,0,0,0,0,0,0,0,0,0,0,0,0,0,0,0,0,0,0,0,0,0,0,0,0,0,0,0,0,0,0,0,0,0,0,0,0,0,0,0,0,0,0,0,0,0,0,0,0,0,0,0,0,0,0,0,0,0,0,0,0],"id":7,"left_children":[1,3,5,-1,7,9,11,13,15,-1,17,19,21,23,25,27,29,-1,31,33,-1,35,37,39,-1,-1,-1,41,43,-1,-1,45,47,49,51,53,55,57,59,-1,-1,-1,-1,-1,-1,-1,-1,-1,-1,-1,-1,-1,-1,-1,-1,-1,-1,-1,-1,-1,-1],"loss_changes":[6.267853E3,1.6206104E2,1.7225098E1,0E0,4.4109985E2,3.1394691E1,1.816748E1,6.6401367E0,8.690982E1,0E0,1.1668167E1,1.1314369E1,5.1098633E0,4.029541E-1,2.2674986E1,4.429737E1,2.6635098E1,0E0,6.3823395E0,6.423851E0,0E0,5.5341797E0,2.026123E0,1.4823898E1,0E0,0E0,0E0,1.3719939E1,3.5039177E1,0E0,0E0,1.2259573E1,5.773102E0,2.199758E1,4.898964E0,5.9904556E0,3.1455078E0,3.1953888E0,2.2912598E0,0E0,0E0,0E0,0E0,0E0,0E0,0E0,0E0,0E0,0E0,0E0,0E0,0E0,0E0,0E0,0E0,0E0,0E0,0E0,0E0,0E0,0E0],"parents":[2147483647,0,0,1,1,2,2,4,4,5,5,6,6,7,7,8,8,10,10,11,11,12,12,13,13,14,14,15,15,16,16,18,18,19,19,21,21,22,22,23,23,27,27,28,28,31,31,32,32,33,33,34,34,35,35,36,36,37,37,38,38],"right_children":[2,4,6,-1,8,10,12,14,16,-1,18,20,22,24,26,28,30,-1,32,34,-1,36,38,40,-1,-1,-1,42,44,-1,-1,46,48,50,52,54,56,58,60,-1,-1,-1,-1,-1,-1,-1,-1,-1,-1,-1,-1,-1,-1,-1,-1,-1,-1,-1,-1,-1,-1],"split_conditions":[1E0,2.1E1,2E1,-2.8521344E-2,9.49E1,1.075E2,1.003E2,9.45E1,4.2E1,-2.2927728E-2,1.7E1,9.52E1,1.056E2,8.42E1,7.58E1,2.4E1,1.05E2,-1.6585093E-2,8.59E1,2.9E1,-1.7620428E-2,2.3E1,2.2E1,8.41E1,-2.8460763E-2,3.478348E-2,-2.5689228E-2,9.9E1,9.94E1,-2.7668633E-2,3.0826503E-2,8.04E1,1.107E2,2.23E3,8.63E1,8.53E1,3.7E1,1.099E2,4E1,-2.6676275E-2,7.1058446E-3,9.334495E-4,-2.7042551E-2,1.011259E-2,3.015875E-2,3.4914564E-2,-2.0153595E-2,1.854619E-2,4.2483725E-2,2.9329976E-2,-2.4017325E-2,1.2209752E-2,3.9708648E-2,3.6687687E-2,1.5896907E-2,4.1041683E-2,2.4548292E-2,2.9241396E-2,4.425717E-2,4.5177333E-2,2.5153121E-2],"split_indices":[5,3,3,0,2,2,2,2,3,0,3,0,2,0,0,3,2,0,0,3,0,3,3,0,0,0,0,2,2,0,0,0,2,1,0,0,3,2,3,0,0,0,0,0,0,0,0,0,0,0,0,0,0,0,0,0,0,0,0,0,0],"split_type":[0,0,0,0,0,0,0,0,0,0,0,0,0,0,0,0,0,0,0,0,0,0,0,0,0,0,0,0,0,0,0,0,0,0,0,0,0,0,0,0,0,0,0,0,0,0,0,0,0,0,0,0,0,0,0,0,0,0,0,0,0],"sum_hessian":[2.6220237E3,1.6809941E3,9.4102954E2,1.0264584E3,6.545358E2,4.2625607E1,8.9840393E2,4.392677E2,2.1526817E2,3.8367481E0,3.8788857E1,4.25017E1,8.559022E2,4.2839545E2,1.087223E1,1.8297798E2,3.229018E1,1.3014265E0,3.748743E1,4.09876E1,1.5141028E0,4.159367E2,4.399655E2,1.1933413E2,3.0906134E2,2.4125683E0,8.4596615E0,2.897213E1,1.5400586E2,2.9651777E1,2.6384022E0,4.585254E0,3.2902176E1,1.5439225E1,2.5548374E1,2.8390024E1,3.875467E2,4.463512E1,3.9533038E2,1.14284935E2,5.0491967E0,1.887504E1,1.009709E1,9.99794E1,5.402646E1,2.4093933E0,2.1758611E0,7.5231786E0,2.5378998E1,1.2231009E1,3.2082162E0,4.2110863E0,2.1337288E1,1.6586573E1,1.1803452E1,3.7754263E2,1.0004056E1,2.4891298E1,1.9743824E1,3.8888657E2,6.443806E0],"tree_param":{"num_deleted":"0","num_feature":"8","num_nodes":"61","size_leaf_vector":"1"}},{"base_weights":[-2.0913998E-2,-1.1658633E0,1.9917363E0,-2.8280867E-2,-7.768569E-1,1.326928E0,2.0216994E0,-1.3485227E0,3.7643555E-1,-2.2725565E-2,1.5897046E0,1.3385568E0,2.053993E0,-1.3684982E0,-5.154954E-1,6.3708997E-1,-1.0935898E0,-1.6454618E-2,1.6916604E0,1.4381166E0,-1.7477456E-2,1.9459819E0,2.1514797E0,-1.2475948E0,-2.8220486E-2,3.4139704E-2,-2.5463661E-2,-4.6259034E-1,8.441108E-1,-2.7431484E-2,3.0246481E-2,4.8541963E-1,1.8396393E0,8.5337996E-1,1.7450091E0,1.6397717E0,2.0129771E0,1.7901247E0,2.1876743E0,-2.642916E-2,6.9753104E-3,-2.6616773E-2,1.0169944E-3,9.886588E-3,2.9358909E-2,3.426518E-2,-1.9978562E-2,1.814673E-2,4.1418985E-2,2.8643515E-2,-2.3773665E-2,1.1984162E-2,3.866925E-2,-1.8516393E-2,3.3808704E-2,4.0683046E-2,2.3989076E-2,2.214106E-2,3.9164074E-2,4.4006944E-2,2.460598E-2],"categories":[],"categories_nodes":[],"categories_segments":[],"categories_sizes":[],"default_left":[0,0,0,0,0,0,0,0,0,0,0,0,0,0,0,0,0,0,0,0,0,0,0,0,0,0,0,0,0,0,0,0,0,0,0,0,0,0,0,0,0,0,0,0,0,0,0,0,0,0,0,0,0,0,0,0,0,0,0,0,0],"id":8,"left_children":[1,3,5,-1,7,9,11,13,15,-1,17,19,21,23,25,27,29,-1,31,33,-1,35,37,39,-1,-1,-1,41,43,-1,-1,45,47,49,51,53,55,57,59,-1,-1,-1,-1,-1,-1,-1,-1,-1,-1,-1,-1,-1,-1,-1,-1,-1,-1,-1,-1,-1,-1],"loss_changes":[6.0214946E3,1.5969995E2,1.6191406E1,0E0,4.2967163E2,3.0139069E1,1.7210205E1,6.540161E0,8.365622E1,0E0,1.1222816E1,1.0884468E1,4.8901367E0,4.2285156E-1,2.204595E1,4.2400642E1,2.59623E1,0E0,6.0106354E0,6.0845337E0,0E0,5.3031006E0,1.8857422E0,1.4507462E1,0E0,0E0,0E0,1.33886795E1,3.3238388E1,0E0,0E0,1.1889756E1,5.4728165E0,2.1185074E1,4.6113434E0,1.2052338E1,3.4123535E0,3.1009827E0,2.1306152E0,0E0,0E0,0E0,0E0,0E0,0E0,0E0,0E0,0E0,0E0,0E0,0E0,0E0,0E0,0E0,0E0,0E0,0E0,0E0,0E0,0E0,0E0],"parents":[2147483647,0,0,1,1,2,2,4,4,5,5,6,6,7,7,8,8,10,10,11,11,12,12,13,13,14,14,15,15,16,16,18,18,19,19,21,21,22,22,23,23,27,27,28,28,31,31,32,32,33,33,34,34,35,35,36,36,37,37,38,38],"right_children":[2,4,6,-1,8,10,12,14,16,-1,18,20,22,24,26,28,30,-1,32,34,-1,36,38,40,-1,-1,-1,42,44,-1,-1,46,48,50,52,54,56,58,60,-1,-1,-1,-1,-1,-1,-1,-1,-1,-1,-1,-1,-1,-1,-1,-1,-1,-1,-1,-1,-1,-1],"split_conditions":[1E0,2.1E1,2E1,-2.8280867E-2,9.49E1,1.075E2,1.003E2,9.45E1,4.2E1,-2.2725565E-2,1.7E1,9.52E1,1.056E2,8.42E1,7.58E1,2.4E1,1.05E2,-1.6454618E-2,8.59E1,2.9E1,-1.7477456E-2,2.5E1,2.2E1,8.41E1,-2.8220486E-2,3.4139704E-2,-2.5463661E-2,2.261E3,9.94E1,-2.7431484E-2,3.0246481E-2,8.04E1,1.107E2,2.23E3,8.63E1,1.017E2,3.7E1,1.075E2,4E1,-2.642916E-2,6.9753104E-3,-2.6616773E-2,1.0169944E-3,9.886588E-3,2.9358909E-2,3.426518E-2,-1.9978562E-2,1.814673E-2,4.1418985E-2,2.8643515E-2,-2.3773665E-2,1.1984162E-2,3.866925E-2,-1.8516393E-2,3.3808704E-2,4.0683046E-2,2.3989076E-2,2.214106E-2,3.9164074E-2,4.4006944E-2,2.460598E-2],"split_indices":[5,3,3,0,2,2,2,2,3,0,3,0,2,0,0,3,2,0,0,3,0,3,3,0,0,0,0,1,2,0,0,0,2,1,0,2,3,2,3,0,0,0,0,0,0,0,0,0,0,0,0,0,0,0,0,0,0,0,0,0,0],"split_type":[0,0,0,0,0,0,0,0,0,0,0,0,0,0,0,0,0,0,0,0,0,0,0,0,0,0,0,0,0,0,0,0,0,0,0,0,0,0,0,0,0,0,0,0,0,0,0,0,0,0,0,0,0,0,0,0,0,0,0,0,0],"sum_hessian":[2.6110547E3,1.6645514E3,9.4650323E2,1.01461035E3,6.49941E2,4.277244E1,9.0373083E2,4.3443185E2,2.1550912E2,3.8027E0,3.896974E1,4.2708965E1,8.6102185E2,4.236306E2,1.0801234E1,1.8353297E2,3.1976149E1,1.2935199E0,3.767622E1,4.1204727E1,1.5042382E0,4.1840668E2,4.4261514E2,1.1812746E2,3.0550317E2,2.4276028E0,8.3736315E0,2.8881563E1,1.5465141E2,2.9321918E1,2.6542308E0,4.584695E0,3.3091526E1,1.5483673E1,2.5721052E1,7.968278E1,3.387239E2,4.4891537E1,3.977236E2,1.1306803E2,5.0594206E0,1.0140892E1,1.8740671E1,1.002398E2,5.4411613E1,2.424748E0,2.159947E0,7.5566797E0,2.5534847E1,1.2296933E1,3.1867404E0,4.223247E0,2.1497807E1,1.2085425E0,7.8474236E1,3.286686E2,1.0055299E1,1.0362983E1,3.4528553E1,3.9124637E2,6.477241E0],"tree_param":{"num_deleted":"0","num_feature":"8","num_nodes":"61","size_leaf_vector":"1"}},{"base_weights":[-2.0635206E-2,-1.1542517E0,1.9426738E0,-2.8049078E-2,-7.669975E-1,1.2975879E0,1.9716777E0,-1.3367693E0,3.6859673E-1,-2.2528088E-2,1.5533323E0,1.3071404E0,2.0030692E0,-1.3567452E0,-5.077134E-1,6.2265646E-1,-1.0822165E0,-1.6326157E-2,1.6527913E0,1.4042125E0,-1.7336842E-2,1.8976077E0,2.0982926E0,-1.2355505E0,-2.7988842E-2,3.3523183E-2,-2.5244482E-2,-4.5568755E-1,8.242319E-1,-2.7202262E-2,2.9688615E-2,4.7839218E-1,1.7959329E0,5.9222156E-1,1.5997055E0,1.3691189E0,1.9327434E0,1.7470775E0,2.1334767E0,-2.6189432E-2,6.8474784E-3,1.0013762E-3,-2.663989E-2,9.666632E-3,2.8597219E-2,3.364338E-2,-1.9806944E-2,1.7759673E-2,4.042023E-2,2.8099792E-2,-2.1411436E-2,4.00642E-2,2.0137424E-2,3.493109E-2,1.4853967E-2,3.899495E-2,2.345086E-2,2.7785689E-2,4.2195626E-2,4.2915393E-2,2.407893E-2],"categories":[],"categories_nodes":[],"categories_segments":[],"categories_sizes":[],"default_left":[0,0,0,0,0,0,0,0,0,0,0,0,0,0,0,0,0,0,0,0,0,0,0,0,0,0,0,0,0,0,0,0,0,0,0,0,0,0,0,0,0,0,0,0,0,0,0,0,0,0,0,0,0,0,0,0,0,0,0,0,0],"id":9,"left_children":[1,3,5,-1,7,9,11,13,15,-1,17,19,21,23,25,27,29,-1,31,33,-1,35,37,39,-1,-1,-1,41,43,-1,-1,45,47,49,51,53,55,57,59,-1,-1,-1,-1,-1,-1,-1,-1,-1,-1,-1,-1,-1,-1,-1,-1,-1,-1,-1,-1,-1,-1],"loss_changes":[5.7889473E3,1.5741406E2,1.5255371E1,0E0,4.1864014E2,2.895848E1,1.6348633E1,6.4415894E0,8.054864E1,0E0,1.080526E1,1.0479538E1,4.7180176E0,4.434204E-1,2.1440588E1,4.059809E1,2.531277E1,0E0,5.669487E0,5.782501E0,0E0,5.180908E0,1.7814941E0,1.4201813E1,0E0,0E0,0E0,1.3268063E1,3.1569595E1,0E0,0E0,1.153585E1,5.2055664E0,1.476792E1,6.0161133E0,5.726326E0,2.791626E0,3.0533295E0,1.9952393E0,0E0,0E0,0E0,0E0,0E0,0E0,0E0,0E0,0E0,0E0,0E0,0E0,0E0,0E0,0E0,0E0,0E0,0E0,0E0,0E0,0E0,0E0],"parents":[2147483647,0,0,1,1,2,2,4,4,5,5,6,6,7,7,8,8,10,10,11,11,12,12,13,13,14,14,15,15,16,16,18,18,19,19,21,21,22,22,23,23,27,27,28,28,31,31,32,32,33,33,34,34,35,35,36,36,37,37,38,38],"right_children":[2,4,6,-1,8,10,12,14,16,-1,18,20,22,24,26,28,30,-1,32,34,-1,36,38,40,-1,-1,-1,42,44,-1,-1,46,48,50,52,54,56,58,60,-1,-1,-1,-1,-1,-1,-1,-1,-1,-1,-1,-1,-1,-1,-1,-1,-1,-1,-1,-1,-1,-1],"split_conditions":[1E0,2.1E1,2E1,-2.8049078E-2,9.49E1,1.075E2,1.003E2,9.45E1,4.2E1,-2.2528088E-2,1.7E1,9.52E1,1.056E2,8.42E1,7.58E1,2.4E1,1.05E2,-1.6326157E-2,8.59E1,8.48E1,-1.7336842E-2,2.3E1,2.2E1,8.41E1,-2.7988842E-2,3.3523183E-2,-2.5244482E-2,9.9E1,9.94E1,-2.7202262E-2,2.9688615E-2,8.04E1,1.107E2,9.95E1,8.83E1,8.53E1,3.7E1,1.099E2,4E1,-2.6189432E-2,6.8474784E-3,1.0013762E-3,-2.663989E-2,9.666632E-3,2.8597219E-2,3.364338E-2,-1.9806944E-2,1.7759673E-2,4.042023E-2,2.8099792E-2,-2.1411436E-2,4.00642E-2,2.0137424E-2,3.493109E-2,1.4853967E-2,3.899495E-2,2.345086E-2,2.7785689E-2,4.2195626E-2,4.2915393E-2,2.407893E-2],"split_indices":[5,3,3,0,2,2,2,2,3,0,3,0,2,0,0,3,2,0,0,0,0,3,3,0,0,0,0,2,2,0,0,0,2,2,0,0,3,2,3,0,0,0,0,0,0,0,0,0,0,0,0,0,0,0,0,0,0,0,0,0,0],"split_type":[0,0,0,0,0,0,0,0,0,0,0,0,0,0,0,0,0,0,0,0,0,0,0,0,0,0,0,0,0,0,0,0,0,0,0,0,0,0,0,0,0,0,0,0,0,0,0,0,0,0,0,0,0,0,0,0,0,0,0,0,0],"sum_hessian":[2.5990188E3,1.6479202E3,9.5109863E2,1.0026633E3,6.452569E2,4.289064E1,9.08208E2,4.2955518E2,2.1570172E2,3.7684236E0,3.9122215E1,4.2890285E1,8.653177E2,4.1882718E2,1.0728018E1,1.8404366E2,3.1658058E1,1.2855722E0,3.7836643E1,4.1395966E1,1.4943204E0,4.2051614E2,4.4480154E2,1.169118E2,3.0191537E2,2.441055E0,8.2869625E0,2.878663E1,1.5525703E2,2.8989393E1,2.668665E0,4.582424E0,3.325422E1,8.814368E0,3.2581596E1,2.8705961E1,3.9181018E2,4.5114586E1,3.9968695E2,1.1184244E2,5.069362E0,1.8850195E1,9.936436E0,1.0049042E2,5.476661E1,2.43851E0,2.1439145E0,7.5884104E0,2.5665808E1,6.024604E0,2.7897644E0,1.7970905E1,1.4610692E1,1.6797096E1,1.1908864E1,3.8170737E2,1.0102817E1,2.5142683E1,1.9971905E1,3.9317874E2,6.5082064E0],"tree_param":{"num_deleted":"0","num_feature":"8","num_nodes":"61","size_leaf_vector":"1"}},{"base_weights":[-2.0342587E-2,-1.1429862E0,1.8966434E0,-2.782556E-2,-7.573939E-1,1.2696818E0,1.924773E0,-1.3254014E0,3.6098352E-1,-2.2335099E-2,1.5188286E0,1.2780112E0,1.9552983E0,-1.3453796E0,-5.001752E-1,6.0866904E-1,-1.0711927E0,-1.6199654E-2,1.6159605E0,1.3728143E0,-1.7198514E-2,1.7941278E0,2.0141344E0,-1.223836E0,-2.7765412E-2,3.2932263E-2,-2.5031392E-2,-1.09242825E-2,9.475384E-1,-2.6980579E-2,2.9151637E-2,1.0161867E0,3.859388E-2,8.0716026E-1,1.6694268E0,1.1662071E0,1.8354683E0,1.725945E0,2.0611346E0,-2.5956726E-2,6.722277E-3,-1.7665012E-2,7.0039826E-3,2.6176533E-2,3.873293E-3,-2.067939E-2,2.7352674E-2,2.7311038E-2,-2.3652392E-2,1.1435981E-2,3.6986537E-2,-2.0778831E-2,2.8599378E-2,3.710489E-2,2.0654596E-2,6.8976306E-3,3.587049E-2,4.171656E-2,2.957564E-2],"categories":[],"categories_nodes":[],"categories_segments":[],"categories_sizes":[],"default_left":[0,0,0,0,0,0,0,0,0,0,0,0,0,0,0,0,0,0,0,0,0,0,0,0,0,0,0,0,0,0,0,0,0,0,0,0,0,0,0,0,0,0,0,0,0,0,0,0,0,0,0,0,0,0,0,0,0,0,0],"id":10,"left_children":[1,3,5,-1,7,9,11,13,15,-1,17,19,21,23,25,27,29,-1,31,33,-1,35,37,39,-1,-1,-1,41,43,-1,-1,45,-1,47,49,51,53,55,57,-1,-1,-1,-1,-1,-1,-1,-1,-1,-1,-1,-1,-1,-1,-1,-1,-1,-1,-1,-1],"loss_changes":[5.569558E3,1.5520557E2,1.4413574E1,0E0,4.0798883E2,2.7846497E1,1.5523193E1,6.3443604E0,7.757699E1,0E0,1.041301E1,1.0104492E1,4.6347656E0,4.6435547E-1,2.0857687E1,3.896215E1,2.4685375E1,0E0,5.3720703E0,5.790695E0,0E0,4.135498E0,4.9628906E0,1.3906387E1,0E0,0E0,0E0,2.128312E1,3.2413895E1,0E0,0E0,1.25794735E1,0E0,2.0026773E1,4.2688675E0,1.1767088E1,1.6574707E0,8.187683E0,4.619385E0,0E0,0E0,0E0,0E0,0E0,0E0,0E0,0E0,0E0,0E0,0E0,0E0,0E0,0E0,0E0,0E0,0E0,0E0,0E0,0E0],"parents":[2147483647,0,0,1,1,2,2,4,4,5,5,6,6,7,7,8,8,10,10,11,11,12,12,13,13,14,14,15,15,16,16,18,18,19,19,21,21,22,22,23,23,27,27,28,28,31,31,33,33,34,34,35,35,36,36,37,37,38,38],"right_children":[2,4,6,-1,8,10,12,14,16,-1,18,20,22,24,26,28,30,-1,32,34,-1,36,38,40,-1,-1,-1,42,44,-1,-1,46,-1,48,50,52,54,56,58,-1,-1,-1,-1,-1,-1,-1,-1,-1,-1,-1,-1,-1,-1,-1,-1,-1,-1,-1,-1],"split_conditions":[1E0,2.1E1,2E1,-2.782556E-2,9.49E1,1.075E2,1.003E2,9.45E1,4.2E1,-2.2335099E-2,1.7E1,9.52E1,1.038E2,8.42E1,7.58E1,3E1,1.05E2,-1.6199654E-2,1.114E2,2.9E1,-1.7198514E-2,2.4E1,2.3E1,8.41E1,-2.7765412E-2,3.2932263E-2,-2.5031392E-2,2.238E3,3.7E1,-2.6980579E-2,2.9151637E-2,2.28E3,3.859388E-2,2.23E3,8.63E1,2E3,9.61E1,1.046E2,3.6E1,-2.5956726E-2,6.722277E-3,-1.7665012E-2,7.0039826E-3,2.6176533E-2,3.873293E-3,-2.067939E-2,2.7352674E-2,2.7311038E-2,-2.3652392E-2,1.1435981E-2,3.6986537E-2,-2.0778831E-2,2.8599378E-2,3.710489E-2,2.0654596E-2,6.8976306E-3,3.587049E-2,4.171656E-2,2.957564E-2],"split_indices":[5,3,3,0,2,2,2,2,3,0,3,0,2,0,0,3,2,0,2,3,0,3,3,0,0,0,0,1,3,0,0,1,0,1,0,1,0,2,3,0,0,0,0,0,0,0,0,0,0,0,0,0,0,0,0,0,0,0,0],"split_type":[0,0,0,0,0,0,0,0,0,0,0,0,0,0,0,0,0,0,0,0,0,0,0,0,0,0,0,0,0,0,0,0,0,0,0,0,0,0,0,0,0,0,0,0,0,0,0,0,0,0,0,0,0,0,0,0,0,0,0],"sum_hessian":[2.5859666E3,1.6311315E3,9.54835E2,9.9063226E2,6.404992E2,4.29817E1,9.1185333E2,4.2464374E2,2.1585547E2,3.7339525E0,3.9247746E1,4.3029232E1,8.688241E2,4.1399103E2,1.0652726E1,1.845191E2,3.1336367E1,1.2775882E0,3.7970158E1,4.1544876E1,1.4843557E0,2.4077074E2,6.2805334E2,1.1568864E2,2.983024E2,2.4529786E0,8.199748E0,6.557983E1,1.1893928E2,2.8654615E1,2.681751E0,1.4496258E1,2.34739E1,1.5571176E1,2.59737E1,1.6676796E1,2.2409395E2,9.335462E1,5.346987E2,1.10609604E2,5.07903E0,1.8776836E1,4.680299E1,7.990788E1,3.903139E1,1.8371658E0,1.2659092E1,1.2403969E1,3.1672075E0,4.2459884E0,2.172771E1,1.4676613E0,1.5209135E1,2.174263E2,6.6676435E0,4.6397324E0,8.871489E1,5.1047128E2,2.4227419E1],"tree_param":{"num_deleted":"0","num_feature":"8","num_nodes":"59","size_leaf_vector":"1"}},{"base_weights":[-2.0095894E-2,-1.1320765E0,1.8530214E0,-2.7609913E-2,-7.4807525E-1,1.241752E0,1.880417E0,-1.3144002E0,3.5369563E-1,-2.2146411E-2,1.4844084E0,1.2492982E0,1.910205E0,-1.3343823E0,-4.9286866E-1,5.9529513E-1,-1.0605013E0,1.5768294E0,-1.7423509E-2,1.3418888E0,-1.7062407E-2,1.8238358E0,2.0199516E0,-1.2124343E0,-2.7549805E-2,3.2365423E-2,-2.482411E-2,-4.4848078E-1,7.8846526E-1,-2.6766071E-2,2.8634354E-2,-1.4773207E-2,1.6604074E0,7.899657E-1,1.63044E0,1.3133126E0,1.8599375E0,2.032591E0,1.1387521E0,-2.573068E-2,6.5996354E-3,9.177906E-4,-2.6327109E-2,9.154382E-3,2.7485976E-2,9.039076E-3,3.625238E-2,2.6709685E-2,-2.341832E-2,1.1228217E-2,3.6101952E-2,3.4600742E-2,1.0455912E-2,3.7356596E-2,1.3888462E-2,3.446245E-2,4.13388E-2,1.1221838E-2,3.3380352E-2],"categories":[],"categories_nodes":[],"categories_segments":[],"categories_sizes":[],"default_left":[0,0,0,0,0,0,0,0,0,0,0,0,0,0,0,0,0,0,0,0,0,0,0,0,0,0,0,0,0,0,0,0,0,0,0,0,0,0,0,0,0,0,0,0,0,0,0,0,0,0,0,0,0,0,0,0,0,0,0],"id":11,"left_children":[1,3,5,-1,7,9,11,13,15,-1,17,19,21,23,25,27,29,31,-1,33,-1,35,37,39,-1,-1,-1,41,43,-1,-1,-1,45,47,49,51,53,55,57,-1,-1,-1,-1,-1,-1,-1,-1,-1,-1,-1,-1,-1,-1,-1,-1,-1,-1,-1,-1],"loss_changes":[5.3613564E3,1.5304297E2,1.3721924E1,0E0,3.976965E2,2.6766937E1,1.4829834E1,6.248535E0,7.474832E1,0E0,1.0163597E1,9.742279E0,4.587158E0,4.8590088E-1,2.0296106E1,3.7838898E1,2.4079048E1,8.813919E0,0E0,5.5109634E0,0E0,6.7473145E0,1.8621826E0,1.3620697E1,0E0,0E0,0E0,1.2790861E1,2.9838799E1,0E0,0E0,0E0,6.197891E0,1.9317184E1,4.0455627E0,1.1064846E1,2.9643555E0,3.5473633E-1,1.3844051E0,0E0,0E0,0E0,0E0,0E0,0E0,0E0,0E0,0E0,0E0,0E0,0E0,0E0,0E0,0E0,0E0,0E0,0E0,0E0,0E0],"parents":[2147483647,0,0,1,1,2,2,4,4,5,5,6,6,7,7,8,8,10,10,11,11,12,12,13,13,14,14,15,15,16,16,17,17,19,19,21,21,22,22,23,23,27,27,28,28,32,32,33,33,34,34,35,35,36,36,37,37,38,38],"right_children":[2,4,6,-1,8,10,12,14,16,-1,18,20,22,24,26,28,30,32,-1,34,-1,36,38,40,-1,-1,-1,42,44,-1,-1,-1,46,48,50,52,54,56,58,-1,-1,-1,-1,-1,-1,-1,-1,-1,-1,-1,-1,-1,-1,-1,-1,-1,-1,-1,-1],"split_conditions":[1E0,2.1E1,2E1,-2.7609913E-2,9.49E1,1.075E2,1.003E2,9.45E1,4.2E1,-2.2146411E-2,9.56E1,9.52E1,1.064E2,8.42E1,7.58E1,2.4E1,1.05E2,1.7E1,-1.7423509E-2,2.9E1,-1.7062407E-2,2.3E1,3.7E1,8.41E1,-2.7549805E-2,3.2365423E-2,-2.482411E-2,9.9E1,9.94E1,-2.6766071E-2,2.8634354E-2,-1.4773207E-2,8.59E1,2.23E3,8.63E1,8.57E1,2.798E3,2.2E1,1.08E2,-2.573068E-2,6.5996354E-3,9.177906E-4,-2.6327109E-2,9.154382E-3,2.7485976E-2,9.039076E-3,3.625238E-2,2.6709685E-2,-2.341832E-2,1.1228217E-2,3.6101952E-2,3.4600742E-2,1.0455912E-2,3.7356596E-2,1.3888462E-2,3.446245E-2,4.13388E-2,1.1221838E-2,3.3380352E-2],"split_indices":[5,3,3,0,2,2,2,2,3,0,0,0,2,0,0,3,2,3,0,3,0,3,3,0,0,0,0,2,2,0,0,0,0,1,0,0,1,3,2,0,0,0,0,0,0,0,0,0,0,0,0,0,0,0,0,0,0,0,0],"split_type":[0,0,0,0,0,0,0,0,0,0,0,0,0,0,0,0,0,0,0,0,0,0,0,0,0,0,0,0,0,0,0,0,0,0,0,0,0,0,0,0,0,0,0,0,0,0,0,0,0,0,0,0,0,0,0,0,0,0,0],"sum_hessian":[2.5720164E3,1.6141613E3,9.578551E2,9.785317E2,6.356296E2,4.307448E1,9.1478064E2,4.1970343E2,2.1592615E2,3.6993198E0,3.937516E1,4.316575E1,8.7161487E2,4.0912793E2,1.057551E1,1.8491464E2,3.1011509E1,3.8206722E1,1.1684362E0,4.16914E1,1.4743502E0,4.976159E2,3.73999E2,1.1445936E2,2.9466858E2,2.463426E0,8.112084E0,2.8671158E1,1.5624348E2,2.8317972E1,2.6935358E0,1.0579774E0,3.7148746E1,1.5596698E1,2.6094702E1,3.533361E1,4.622823E2,3.6742218E2,6.576805E0,1.09370926E2,5.0884314E0,1.8869555E1,9.801602E0,1.0100182E2,5.5241653E1,4.5996885E0,3.2549057E1,1.2451593E1,3.1451044E0,4.2564607E0,2.1838242E1,2.235866E1,1.297495E1,4.5857446E2,3.7078333E0,4.181878E1,3.256034E2,4.132777E0,2.4440281E0],"tree_param":{"num_deleted":"0","num_feature":"8","num_nodes":"59","size_leaf_vector":"1"}},{"base_weights":[-1.9848773E-2,-1.1214507E0,1.8118596E0,-2.7401768E-2,-7.3894423E-1,1.2145965E0,1.8386103E0,-1.3037477E0,3.4650123E-1,-2.1961845E-2,1.4510586E0,1.5542548E0,1.9055314E0,-1.3237357E0,-4.857824E-1,5.821343E-1,-1.0501261E0,1.5415196E0,-1.7275767E-2,7.1617776E-1,1.6518971E0,1.6045091E0,1.9507502E0,-1.2013304E0,-2.7341649E-2,3.1821243E-2,-2.4622371E-2,-4.4180915E-1,7.7043205E-1,-2.6558407E-2,2.813567E-2,-1.4665629E-2,1.623203E0,-4.7557968E-1,3.0316055E-2,1.7565151E0,1.1557808E0,7.127963E-1,1.7130681E0,3.9441798E-2,1.3041757E0,-2.5510984E-2,6.4794924E-3,-2.596728E-2,1.0279202E-3,8.9536505E-3,2.6809253E-2,8.874441E-3,3.5431076E-2,2.4420492E-2,-2.9685892E-2,2.569079E-2,3.7205365E-2,-2.5310025E-2,2.850699E-2,3.590926E-2,-2.7786206E-2,3.0501248E-2,4.0423445E-2,2.9831763E-2,-1.8811163E-2],"categories":[],"categories_nodes":[],"categories_segments":[],"categories_sizes":[],"default_left":[0,0,0,0,0,0,0,0,0,0,0,0,0,0,0,0,0,0,0,0,0,0,0,0,0,0,0,0,0,0,0,0,0,0,0,0,0,0,0,0,0,0,0,0,0,0,0,0,0,0,0,0,0,0,0,0,0,0,0,0,0],"id":12,"left_children":[1,3,5,-1,7,9,11,13,15,-1,17,19,21,23,25,27,29,31,-1,33,35,37,39,41,-1,-1,-1,43,45,-1,-1,-1,47,49,-1,51,53,55,57,-1,59,-1,-1,-1,-1,-1,-1,-1,-1,-1,-1,-1,-1,-1,-1,-1,-1,-1,-1,-1,-1],"loss_changes":[5.1641143E3,1.509779E2,1.3123291E1,0E0,3.8775302E2,2.573693E1,1.450708E1,6.154114E0,7.202678E1,0E0,9.809143E0,1.3571869E1,6.9248047E0,5.0787354E-1,1.9754776E1,3.62648E1,2.3492847E1,8.496651E0,0E0,2.0333267E1,6.312042E0,8.662994E0,6.2248535E0,1.3344284E1,0E0,0E0,0E0,1.2561873E1,2.8421669E1,0E0,0E0,0E0,5.9101562E0,1.7257883E1,0E0,4.016205E0,2.198188E1,3.1611963E1,2.1488342E0,0E0,1.1214657E1,0E0,0E0,0E0,0E0,0E0,0E0,0E0,0E0,0E0,0E0,0E0,0E0,0E0,0E0,0E0,0E0,0E0,0E0,0E0,0E0],"parents":[2147483647,0,0,1,1,2,2,4,4,5,5,6,6,7,7,8,8,10,10,11,11,12,12,13,13,14,14,15,15,16,16,17,17,19,19,20,20,21,21,22,22,23,23,27,27,28,28,32,32,33,33,35,35,36,36,37,37,38,38,40,40],"right_children":[2,4,6,-1,8,10,12,14,16,-1,18,20,22,24,26,28,30,32,-1,34,36,38,40,42,-1,-1,-1,44,46,-1,-1,-1,48,50,-1,52,54,56,58,-1,60,-1,-1,-1,-1,-1,-1,-1,-1,-1,-1,-1,-1,-1,-1,-1,-1,-1,-1,-1,-1],"split_conditions":[1E0,2.1E1,2E1,-2.7401768E-2,9.49E1,1.075E2,1.026E2,9.45E1,4.2E1,-2.1961845E-2,9.56E1,2.6E1,2.3E1,8.42E1,7.58E1,2.4E1,1.05E2,1.7E1,-1.7275767E-2,2.346E3,2.361E3,1.046E2,3.7E1,8.41E1,-2.7341649E-2,3.1821243E-2,-2.4622371E-2,2.261E3,9.94E1,-2.6558407E-2,2.813567E-2,-1.4665629E-2,8.59E1,9.99E1,3.0316055E-2,1.003E2,2.474E3,8.15E1,1.099E2,3.9441798E-2,9.37E1,-2.5510984E-2,6.4794924E-3,-2.596728E-2,1.0279202E-3,8.9536505E-3,2.6809253E-2,8.874441E-3,3.5431076E-2,2.4420492E-2,-2.9685892E-2,2.569079E-2,3.7205365E-2,-2.5310025E-2,2.850699E-2,3.590926E-2,-2.7786206E-2,3.0501248E-2,4.0423445E-2,2.9831763E-2,-1.8811163E-2],"split_indices":[5,3,3,0,2,2,2,2,3,0,0,3,3,0,0,3,2,3,0,1,1,2,3,0,0,0,0,1,2,0,0,0,0,2,0,2,1,0,2,0,0,0,0,0,0,0,0,0,0,0,0,0,0,0,0,0,0,0,0,0,0],"split_type":[0,0,0,0,0,0,0,0,0,0,0,0,0,0,0,0,0,0,0,0,0,0,0,0,0,0,0,0,0,0,0,0,0,0,0,0,0,0,0,0,0,0,0,0,0,0,0,0,0,0,0,0,0,0,0,0,0,0,0,0,0],"sum_hessian":[2.5572556E3,1.5971229E3,9.601328E2,9.6637524E2,6.307476E2,4.314911E1,9.169837E2,4.1473978E2,2.1600786E2,3.664554E0,3.9484554E1,1.7930809E2,7.376756E2,4.0424326E2,1.0496507E1,1.8532396E2,3.0683895E1,3.8321095E1,1.1634618E0,1.958051E1,1.5972758E2,1.0110447E2,6.3657117E2,1.13225266E2,2.91018E2,2.4724498E0,8.024057E0,2.8577291E1,1.5674667E2,2.7979828E1,2.7040668E0,1.0518206E0,3.726927E1,8.025133E0,1.1555375E1,1.2981287E2,2.9914719E1,1.1793949E1,8.9310524E1,6.142483E2,2.2322876E1,1.08127686E2,5.0975747E0,9.845682E0,1.873161E1,1.0122102E2,5.552565E1,4.60977E0,3.2659504E1,2.913801E0,5.1113324E0,2.5805166E1,1.0400769E2,2.6267314E0,2.7287989E1,7.880869E0,3.9130802E0,5.916052E1,3.0150003E1,2.0912418E1,1.4104588E0],"tree_param":{"num_deleted":"0","num_feature":"8","num_nodes":"61","size_leaf_vector":"1"}},{"base_weights":[-1.9618448E-2,-1.1111246E0,1.7728951E0,-2.720078E-2,-7.3003817E-1,1.1886528E0,1.7990514E0,-1.2934275E0,3.3951384E-1,-2.1781232E-2,1.4192724E0,1.5202398E0,1.8647246E0,-1.3134229E0,-4.7890574E-1,5.6938034E-1,-1.0400517E0,1.5078937E0,-1.7130518E-2,7.0228803E-1,1.6154013E0,1.5696307E0,1.9091016E0,-2.7213417E-2,-1.1981152E0,3.1298414E-2,-2.4425924E-2,-4.3529403E-1,7.5297916E-1,-2.6357267E-2,2.7654558E-2,-1.45595E-2,1.5878041E0,-4.6735543E-1,2.967606E-2,1.7176596E0,1.1304009E0,6.982763E-1,1.6755888E0,3.8601518E-2,1.2749664E0,3.6455885E-2,-2.5527436E-2,9.821007E-4,-2.596371E-2,8.75807E-3,2.61615E-2,8.713284E-3,3.4652114E-2,2.4004616E-2,-2.9291676E-2,2.5113685E-2,3.6387805E-2,-2.5018625E-2,2.7882835E-2,3.5144158E-2,-2.7437534E-2,2.9823164E-2,3.9567146E-2,2.916619E-2,-1.864244E-2],"categories":[],"categories_nodes":[],"categories_segments":[],"categories_sizes":[],"default_left":[0,0,0,0,0,0,0,0,0,0,0,0,0,0,0,0,0,0,0,0,0,0,0,0,0,0,0,0,0,0,0,0,0,0,0,0,0,0,0,0,0,0,0,0,0,0,0,0,0,0,0,0,0,0,0,0,0,0,0,0,0],"id":13,"left_children":[1,3,5,-1,7,9,11,13,15,-1,17,19,21,23,25,27,29,31,-1,33,35,37,39,-1,41,-1,-1,43,45,-1,-1,-1,47,49,-1,51,53,55,57,-1,59,-1,-1,-1,-1,-1,-1,-1,-1,-1,-1,-1,-1,-1,-1,-1,-1,-1,-1,-1,-1],"loss_changes":[4.976854E3,1.4897595E2,1.2573242E1,0E0,3.7813766E2,2.476361E1,1.4001709E1,6.060913E0,6.942232E1,0E0,9.474068E0,1.2931519E1,6.6914062E0,5.508423E-1,1.9232704E1,3.4765236E1,2.292582E1,8.19767E0,0E0,1.9525734E1,6.048645E0,8.278122E0,6.03125E0,0E0,3.1814148E1,0E0,0E0,1.2385891E1,2.7098831E1,0E0,0E0,0E0,5.645981E0,1.6745178E1,0E0,3.8781128E0,2.1200092E1,3.0490482E1,2.104782E0,0E0,1.0823299E1,0E0,0E0,0E0,0E0,0E0,0E0,0E0,0E0,0E0,0E0,0E0,0E0,0E0,0E0,0E0,0E0,0E0,0E0,0E0,0E0],"parents":[2147483647,0,0,1,1,2,2,4,4,5,5,6,6,7,7,8,8,10,10,11,11,12,12,13,13,14,14,15,15,16,16,17,17,19,19,20,20,21,21,22,22,24,24,27,27,28,28,32,32,33,33,35,35,36,36,37,37,38,38,40,40],"right_children":[2,4,6,-1,8,10,12,14,16,-1,18,20,22,24,26,28,30,32,-1,34,36,38,40,-1,42,-1,-1,44,46,-1,-1,-1,48,50,-1,52,54,56,58,-1,60,-1,-1,-1,-1,-1,-1,-1,-1,-1,-1,-1,-1,-1,-1,-1,-1,-1,-1,-1,-1],"split_conditions":[1E0,2.1E1,2E1,-2.720078E-2,9.49E1,1.075E2,1.026E2,9.45E1,4.2E1,-2.1781232E-2,9.56E1,2.6E1,2.3E1,8.88E1,7.58E1,2.4E1,1.05E2,1.7E1,-1.7130518E-2,2.346E3,2.361E3,1.046E2,3.7E1,-2.7213417E-2,8.89E1,3.1298414E-2,-2.4425924E-2,9.9E1,9.94E1,-2.6357267E-2,2.7654558E-2,-1.45595E-2,8.59E1,9.99E1,2.967606E-2,1.003E2,2.474E3,8.15E1,1.099E2,3.8601518E-2,9.37E1,3.6455885E-2,-2.5527436E-2,9.821007E-4,-2.596371E-2,8.75807E-3,2.61615E-2,8.713284E-3,3.4652114E-2,2.4004616E-2,-2.9291676E-2,2.5113685E-2,3.6387805E-2,-2.5018625E-2,2.7882835E-2,3.5144158E-2,-2.7437534E-2,2.9823164E-2,3.9567146E-2,2.916619E-2,-1.864244E-2],"split_indices":[5,3,3,0,2,2,2,2,3,0,0,3,3,2,0,3,2,3,0,1,1,2,3,0,2,0,0,2,2,0,0,0,0,2,0,2,1,0,2,0,0,0,0,0,0,0,0,0,0,0,0,0,0,0,0,0,0,0,0,0,0],"split_type":[0,0,0,0,0,0,0,0,0,0,0,0,0,0,0,0,0,0,0,0,0,0,0,0,0,0,0,0,0,0,0,0,0,0,0,0,0,0,0,0,0,0,0,0,0,0,0,0,0,0,0,0,0,0,0,0,0,0,0,0,0],"sum_hessian":[2.5416953E3,1.5799839E3,9.617114E2,9.541755E2,6.2580835E2,4.320059E1,9.1851086E2,4.0975797E2,2.160504E2,3.6296854E0,3.9570904E1,1.7971042E2,7.388004E2,3.9934213E2,1.0415853E1,1.8569647E2,3.0353914E1,3.8412514E1,1.1583902E0,1.9602116E1,1.601083E2,1.01333336E2,6.374671E2,2.756093E2,1.23732796E2,2.480101E0,7.935751E0,2.8479944E1,1.5721654E2,2.7640526E1,2.7133887E0,1.0456492E0,3.7366863E1,8.012423E0,1.1589692E1,1.3012991E2,2.9978388E1,1.180925E1,8.9524086E1,6.150793E2,2.23878E1,2.5614533E0,1.2117134E2,1.8844406E1,9.635539E0,1.01432014E2,5.578452E1,4.6195245E0,3.274734E1,2.9222345E0,5.0901885E0,2.5892273E1,1.0423764E2,2.6159344E0,2.7362453E1,7.912825E0,3.8964252E0,5.9316624E1,3.0207462E1,2.0983923E1,1.4038762E0],"tree_param":{"num_deleted":"0","num_feature":"8","num_nodes":"61","size_leaf_vector":"1"}},{"base_weights":[-1.9383505E-2,-1.1010481E0,1.7360053E0,-2.7006626E-2,-7.2127175E-1,1.1638323E0,1.7616158E0,-1.2832943E0,3.3271223E-1,-2.1604413E-2,1.3889314E0,1.4878443E0,1.8261684E0,-1.3032947E0,-4.7222838E-1,5.569931E-1,-1.030264E0,1.4758228E0,-1.6987685E-2,6.8894124E-1,1.580673E0,1.5364407E0,1.869794E0,-1.1789428E0,-2.6949933E-2,3.0795712E-2,-2.4234528E-2,-1.7736522E-2,8.67415E-1,-2.6162349E-2,2.7190058E-2,-1.4454788E-2,1.5540708E0,-4.594254E-1,2.9062904E-2,1.6807572E0,1.1060268E0,6.8439174E-1,1.6399338E0,3.7808925E-2,1.2469693E0,-2.50893E-2,6.8381713E-3,-1.7283246E-2,6.527076E-3,2.4437105E-2,2.6212472E-3,8.555513E-3,3.3912096E-2,2.3601323E-2,-2.8911704E-2,2.455864E-2,3.5613716E-2,-2.4735307E-2,2.728408E-2,3.4416735E-2,-2.7100397E-2,2.9174738E-2,3.8760398E-2,2.8529117E-2,-1.8476877E-2],"categories":[],"categories_nodes":[],"categories_segments":[],"categories_sizes":[],"default_left":[0,0,0,0,0,0,0,0,0,0,0,0,0,0,0,0,0,0,0,0,0,0,0,0,0,0,0,0,0,0,0,0,0,0,0,0,0,0,0,0,0,0,0,0,0,0,0,0,0,0,0,0,0,0,0,0,0,0,0,0,0],"id":14,"left_children":[1,3,5,-1,7,9,11,13,15,-1,17,19,21,23,25,27,29,31,-1,33,35,37,39,41,-1,-1,-1,43,45,-1,-1,-1,47,49,-1,51,53,55,57,-1,59,-1,-1,-1,-1,-1,-1,-1,-1,-1,-1,-1,-1,-1,-1,-1,-1,-1,-1,-1,-1],"loss_changes":[4.7988926E3,1.4707288E2,1.2070068E1,0E0,3.687839E2,2.3842552E1,1.3548584E1,5.966858E0,6.692736E1,0E0,9.156754E0,1.2334747E1,6.4851074E0,5.85083E-1,1.8728954E1,3.338492E1,2.2377121E1,7.915436E0,0E0,1.8759384E1,5.8079224E0,7.9163055E0,5.8603516E0,1.32582855E1,0E0,0E0,0E0,1.9671696E1,3.1541428E1,0E0,0E0,0E0,5.4027863E0,1.6252325E1,0E0,3.75766E0,2.0455578E1,2.9425545E1,2.070938E0,0E0,1.0451683E1,0E0,0E0,0E0,0E0,0E0,0E0,0E0,0E0,0E0,0E0,0E0,0E0,0E0,0E0,0E0,0E0,0E0,0E0,0E0,0E0],"parents":[2147483647,0,0,1,1,2,2,4,4,5,5,6,6,7,7,8,8,10,10,11,11,12,12,13,13,14,14,15,15,16,16,17,17,19,19,20,20,21,21,22,22,23,23,27,27,28,28,32,32,33,33,35,35,36,36,37,37,38,38,40,40],"right_children":[2,4,6,-1,8,10,12,14,16,-1,18,20,22,24,26,28,30,32,-1,34,36,38,40,42,-1,-1,-1,44,46,-1,-1,-1,48,50,-1,52,54,56,58,-1,60,-1,-1,-1,-1,-1,-1,-1,-1,-1,-1,-1,-1,-1,-1,-1,-1,-1,-1,-1,-1],"split_conditions":[1E0,2.1E1,2E1,-2.7006626E-2,9.49E1,1.075E2,1.026E2,9.45E1,4.2E1,-2.1604413E-2,9.56E1,2.6E1,2.3E1,8.42E1,7.58E1,3E1,1.05E2,1.7E1,-1.6987685E-2,2.346E3,2.361E3,1.046E2,3.7E1,8.41E1,-2.6949933E-2,3.0795712E-2,-2.4234528E-2,2.238E3,3.7E1,-2.6162349E-2,2.7190058E-2,-1.4454788E-2,8.59E1,9.99E1,2.9062904E-2,1.003E2,2.474E3,8.15E1,1.099E2,3.7808925E-2,9.37E1,-2.50893E-2,6.8381713E-3,-1.7283246E-2,6.527076E-3,2.4437105E-2,2.6212472E-3,8.555513E-3,3.3912096E-2,2.3601323E-2,-2.8911704E-2,2.455864E-2,3.5613716E-2,-2.4735307E-2,2.728408E-2,3.4416735E-2,-2.7100397E-2,2.9174738E-2,3.8760398E-2,2.8529117E-2,-1.8476877E-2],"split_indices":[5,3,3,0,2,2,2,2,3,0,0,3,3,0,0,3,2,3,0,1,1,2,3,0,0,0,0,1,3,0,0,0,0,2,0,2,1,0,2,0,0,0,0,0,0,0,0,0,0,0,0,0,0,0,0,0,0,0,0,0,0],"split_type":[0,0,0,0,0,0,0,0,0,0,0,0,0,0,0,0,0,0,0,0,0,0,0,0,0,0,0,0,0,0,0,0,0,0,0,0,0,0,0,0,0,0,0,0,0,0,0,0,0,0,0,0,0,0,0,0,0,0,0,0,0],"sum_hessian":[2.5254E3,1.5627881E3,9.626119E2,9.419447E2,6.208433E2,4.3230213E1,9.1938165E2,4.0478152E2,2.1606181E2,3.5947404E0,3.963547E1,1.8000787E2,7.393738E2,3.9444785E2,1.0333676E1,1.8603987E2,3.0021946E1,3.8482246E1,1.1532271E0,1.9615372E1,1.603925E2,1.01501015E2,6.3787274E2,1.1069758E2,2.8375027E2,2.4864314E0,7.8472447E0,6.557469E1,1.2046518E2,2.7300398E1,2.7215466E0,1.0394658E0,3.744278E1,7.9970512E0,1.161832E1,1.3036299E2,3.0029509E1,1.1817943E1,8.9683075E1,6.154305E2,2.24423E1,1.05627495E2,5.0700827E0,1.8515957E1,4.7058735E1,8.087635E1,3.958882E1,4.628964E0,3.2813816E1,2.9297354E0,5.0673156E0,2.5969706E1,1.0439329E2,2.6045473E0,2.7424961E1,7.9393244E0,3.878618E0,5.9443165E1,3.0239912E1,2.1045145E1,1.3971547E0],"tree_param":{"num_deleted":"0","num_feature":"8","num_nodes":"61","size_leaf_vector":"1"}},{"base_weights":[-1.9164177E-2,-1.0912888E0,1.7010213E0,-2.6818993E-2,-7.127971E-1,1.4119095E0,1.7515614E0,-1.2735871E0,3.2617292E-1,1.1502043E0,1.7921921E0,1.4515698E0,1.8326324E0,-1.2935978E0,-4.6574092E-1,5.45095E-1,-1.0207492E0,1.2212615E0,-2.4212139E-2,1.1668843E0,3.8727336E-2,-2.194318E-2,1.4824047E0,3.7060022E-2,1.2201014E0,-2.6833637E-2,-1.1765467E0,3.0312005E-2,-2.4047963E-2,-4.2848223E-1,7.2146845E-1,-2.5973372E-2,2.674128E-2,3.723587E-1,1.3863966E0,6.7513144E-1,3.3429217E-2,7.400313E-1,1.5475746E0,1.3959271E0,-1.8314373E-2,3.6159985E-2,-2.512272E-2,9.04643E-4,-2.5679687E-2,8.29888E-3,2.5216315E-2,1.9959413E-2,-2.3615867E-2,8.323984E-3,2.8784411E-2,2.54408E-2,-2.2461805E-2,2.0375134E-2,-2.133472E-2,3.2913044E-2,2.1651829E-2,1.7400611E-2,3.160746E-2],"categories":[],"categories_nodes":[],"categories_segments":[],"categories_sizes":[],"default_left":[0,0,0,0,0,0,0,0,0,0,0,0,0,0,0,0,0,0,0,0,0,0,0,0,0,0,0,0,0,0,0,0,0,0,0,0,0,0,0,0,0,0,0,0,0,0,0,0,0,0,0,0,0,0,0,0,0,0,0],"id":15,"left_children":[1,3,5,-1,7,9,11,13,15,17,19,21,23,25,27,29,31,33,-1,35,-1,-1,37,-1,39,-1,41,-1,-1,43,45,-1,-1,47,49,51,-1,53,55,57,-1,-1,-1,-1,-1,-1,-1,-1,-1,-1,-1,-1,-1,-1,-1,-1,-1,-1,-1],"loss_changes":[4.6297446E3,1.4517834E2,1.161084E1,0E0,3.5978348E2,1.27256775E1,1.7192383E1,5.876343E0,6.454607E1,1.6711044E1,3.039444E0,1.5652832E1,5.709717E0,6.194458E-1,1.8242659E1,3.2474564E1,2.1845915E1,1.1910843E1,0E0,2.228527E0,0E0,0E0,7.4067993E0,0E0,1.009837E1,0E0,3.1212479E1,0E0,0E0,1.1955669E1,2.5757095E1,0E0,0E0,1.6534212E1,3.1855164E0,1.05837755E1,0E0,9.235761E0,5.587494E0,7.6838684E-1,0E0,0E0,0E0,0E0,0E0,0E0,0E0,0E0,0E0,0E0,0E0,0E0,0E0,0E0,0E0,0E0,0E0,0E0,0E0],"parents":[2147483647,0,0,1,1,2,2,4,4,5,5,6,6,7,7,8,8,9,9,10,10,11,11,12,12,13,13,14,14,15,15,16,16,17,17,19,19,22,22,24,24,26,26,29,29,30,30,33,33,34,34,35,35,37,37,38,38,39,39],"right_children":[2,4,6,-1,8,10,12,14,16,18,20,22,24,26,28,30,32,34,-1,36,-1,-1,38,-1,40,-1,42,-1,-1,44,46,-1,-1,48,50,52,-1,54,56,58,-1,-1,-1,-1,-1,-1,-1,-1,-1,-1,-1,-1,-1,-1,-1,-1,-1,-1,-1],"split_conditions":[1E0,2.1E1,2.3E1,-2.6818993E-2,9.49E1,1.099E2,1.026E2,9.45E1,4.2E1,1.096E2,1.9E1,2.4E1,3.7E1,8.88E1,7.58E1,2.4E1,1.05E2,2E1,-2.4212139E-2,9.48E1,3.8727336E-2,-2.194318E-2,2.6E1,3.7060022E-2,9.37E1,-2.6833637E-2,8.89E1,3.0312005E-2,-2.4047963E-2,9.9E1,9.94E1,-2.5973372E-2,2.674128E-2,1.9E1,8.06E1,8.72E1,3.3429217E-2,9.41E1,2.361E3,2.138E3,-1.8314373E-2,3.6159985E-2,-2.512272E-2,9.04643E-4,-2.5679687E-2,8.29888E-3,2.5216315E-2,1.9959413E-2,-2.3615867E-2,8.323984E-3,2.8784411E-2,2.54408E-2,-2.2461805E-2,2.0375134E-2,-2.133472E-2,3.2913044E-2,2.1651829E-2,1.7400611E-2,3.160746E-2],"split_indices":[5,3,3,0,2,2,2,2,3,2,3,3,3,2,0,3,2,3,0,0,0,0,3,0,0,0,2,0,0,2,2,0,0,3,0,0,0,0,1,1,0,0,0,0,0,0,0,0,0,0,0,0,0,0,0,0,0,0,0],"split_type":[0,0,0,0,0,0,0,0,0,0,0,0,0,0,0,0,0,0,0,0,0,0,0,0,0,0,0,0,0,0,0,0,0,0,0,0,0,0,0,0,0,0,0,0,0,0,0,0,0,0,0,0,0,0,0,0,0,0,0],"sum_hessian":[2.5083562E3,1.5454825E3,9.6287354E2,9.296943E2,6.157883E2,1.4758095E2,8.152926E2,3.9977933E2,2.16009E2,8.9803825E1,5.777713E1,1.7747551E2,6.378171E2,3.8952924E2,1.0250102E1,1.8632066E2,2.9688337E1,8.764842E1,2.155403E0,1.2529288E1,4.5247845E1,1.7080889E0,1.7576743E2,6.1533014E2,2.2486925E1,2.6869028E2,1.2083896E2,2.4914908E0,7.7586107E0,2.8357656E1,1.57963E2,2.6959753E1,2.7285843E0,1.4803525E1,7.2844894E1,7.5293293E0,4.9999585E0,1.518178E1,1.6058565E2,2.1096622E1,1.3903027E0,2.574654E0,1.18264305E2,1.8860966E1,9.496692E0,1.0184903E2,5.6113976E1,1.0807645E1,3.9958801E0,4.219825E0,6.862507E1,5.872576E0,1.6567532E0,1.3530594E1,1.6511865E0,1.3051689E2,3.0068748E1,6.962365E0,1.4134258E1],"tree_param":{"num_deleted":"0","num_feature":"8","num_nodes":"59","size_leaf_vector":"1"}},{"base_weights":[-1.8945567E-2,-1.0817341E0,1.6676222E0,-2.6637593E-2,-7.0441705E-1,1.1124277E0,1.6928208E0,-1.264046E0,3.197197E-1,1.2005359E0,-1.7313723E-2,1.3833854E0,1.7502037E0,-1.2840645E0,-4.594346E-1,5.3339374E-1,-1.0114949E0,6.754141E-1,1.4778658E0,1.1259782E0,1.7580644E0,1.5134988E0,1.797476E0,-1.1576003E0,-2.6583837E-2,2.9846236E-2,-2.386601E-2,-4.2218095E-1,7.055227E-1,-2.5790071E-2,2.6307397E-2,1.2018201E0,-2.3933182E-2,4.5742998E-1,1.6500597E0,1.1956719E0,-2.394075E-2,1.1461147E0,3.7982713E-2,-2.1713661E-2,1.5548749E0,3.6351245E-2,1.1952007E0,-2.4690373E-2,7.1852966E-3,-2.5381297E-2,1.0408559E-3,8.119805E-3,2.463367E-2,2.9998114E-2,-1.9768242E-2,-1.829606E-2,2.137904E-2,3.551606E-2,1.46318525E-2,7.289411E-3,2.7144223E-2,1.323572E-2,3.2877114E-2,1.5427644E-2,3.2374024E-2,2.7352124E-2,-1.815483E-2],"categories":[],"categories_nodes":[],"categories_segments":[],"categories_sizes":[],"default_left":[0,0,0,0,0,0,0,0,0,0,0,0,0,0,0,0,0,0,0,0,0,0,0,0,0,0,0,0,0,0,0,0,0,0,0,0,0,0,0,0,0,0,0,0,0,0,0,0,0,0,0,0,0,0,0,0,0,0,0,0,0,0,0],"id":16,"left_children":[1,3,5,-1,7,9,11,13,15,17,-1,19,21,23,25,27,29,31,33,35,37,39,41,43,-1,-1,-1,45,47,-1,-1,49,-1,51,53,55,-1,57,-1,-1,59,-1,61,-1,-1,-1,-1,-1,-1,-1,-1,-1,-1,-1,-1,-1,-1,-1,-1,-1,-1,-1,-1],"loss_changes":[4.4682905E3,1.4339282E2,1.1598145E1,0E0,3.510212E2,8.839348E0,1.3912109E1,5.785095E0,6.2253647E1,5.3025093E0,0E0,1.235907E1,5.92041E0,6.6204834E-1,1.7772995E1,3.1156208E1,2.133146E1,1.7988178E1,4.0721207E0,1.6149292E1,2.8962402E0,1.6193024E1,5.5495605E0,1.3180054E1,0E0,0E0,0E0,1.1817898E1,2.4613464E1,0E0,0E0,1.0366264E1,0E0,5.4671445E0,1.3710632E0,1.1423378E1,0E0,2.1739502E0,0E0,0E0,5.410919E0,0E0,9.769482E0,0E0,0E0,0E0,0E0,0E0,0E0,0E0,0E0,0E0,0E0,0E0,0E0,0E0,0E0,0E0,0E0,0E0,0E0,0E0,0E0],"parents":[2147483647,0,0,1,1,2,2,4,4,5,5,6,6,7,7,8,8,9,9,11,11,12,12,13,13,14,14,15,15,16,16,17,17,18,18,19,19,20,20,21,21,22,22,23,23,27,27,28,28,31,31,33,33,34,34,35,35,37,37,40,40,42,42],"right_children":[2,4,6,-1,8,10,12,14,16,18,-1,20,22,24,26,28,30,32,34,36,38,40,42,44,-1,-1,-1,46,48,-1,-1,50,-1,52,54,56,-1,58,-1,-1,60,-1,62,-1,-1,-1,-1,-1,-1,-1,-1,-1,-1,-1,-1,-1,-1,-1,-1,-1,-1,-1,-1],"split_conditions":[1E0,2.1E1,1.003E2,-2.6637593E-2,9.49E1,9.52E1,2.3E1,9.45E1,4.2E1,2.9E1,-1.7313723E-2,1.099E2,1.026E2,8.42E1,7.58E1,2.4E1,1.05E2,2.23E3,8.63E1,1.096E2,1.9E1,2.4E1,3.7E1,8.41E1,-2.6583837E-2,2.9846236E-2,-2.386601E-2,2.261E3,9.94E1,-2.5790071E-2,2.6307397E-2,8.65E1,-2.3933182E-2,2.524E3,9.97E1,2E1,-2.394075E-2,9.48E1,3.7982713E-2,-2.1713661E-2,2.6E1,3.6351245E-2,9.37E1,-2.4690373E-2,7.1852966E-3,-2.5381297E-2,1.0408559E-3,8.119805E-3,2.463367E-2,2.9998114E-2,-1.9768242E-2,-1.829606E-2,2.137904E-2,3.551606E-2,1.46318525E-2,7.289411E-3,2.7144223E-2,1.323572E-2,3.2877114E-2,1.5427644E-2,3.2374024E-2,2.7352124E-2,-1.815483E-2],"split_indices":[5,3,2,0,2,0,3,2,3,3,0,2,2,0,0,3,2,1,0,2,3,3,3,0,0,0,0,1,2,0,0,0,0,1,2,3,0,0,0,0,3,0,0,0,0,0,0,0,0,0,0,0,0,0,0,0,0,0,0,0,0,0,0],"split_type":[0,0,0,0,0,0,0,0,0,0,0,0,0,0,0,0,0,0,0,0,0,0,0,0,0,0,0,0,0,0,0,0,0,0,0,0,0,0,0,0,0,0,0,0,0,0,0,0,0,0,0,0,0,0,0,0,0,0,0,0,0,0,0],"sum_hessian":[2.4908127E3,1.5281865E3,9.6262616E2,9.17435E2,6.1075146E2,4.3753857E1,9.188723E2,3.947889E2,2.1596257E2,4.2264427E1,1.4894307E0,1.476709E2,7.712014E2,3.8462366E2,1.0165251E1,1.8660915E2,2.9353422E1,1.5794016E1,2.6470413E1,8.990837E1,5.776252E1,1.3387415E2,6.373273E2,1.0816257E2,2.764611E2,2.4953291E0,7.669922E0,2.8261673E1,1.5834747E2,2.6618876E1,2.7345457E0,1.2607074E1,3.1869411E0,4.3497705E0,2.2120642E1,8.776072E1,2.1476526E0,1.2530614E1,4.5231907E1,1.7022492E0,1.3217189E2,6.148054E2,2.2521828E1,1.0311963E2,5.0429363E0,9.543139E0,1.8718533E1,1.020335E2,5.6313965E1,1.1374249E1,1.2328246E0,1.1879995E0,3.1617713E0,1.8635845E1,3.4847968E0,1.4810324E1,7.295039E1,7.531572E0,4.999042E0,1.0941874E1,1.2123002E2,2.1138498E1,1.383328E0],"tree_param":{"num_deleted":"0","num_feature":"8","num_nodes":"63","size_leaf_vector":"1"}},{"base_weights":[-1.8740132E-2,-1.0724528E0,1.6359078E0,-2.6462156E-2,-6.9628304E-1,1.0899559E0,1.6607313E0,-1.2548962E0,3.134386E-1,1.1763698E0,-1.7175823E-2,1.3558899E0,1.7173588E0,-1.274928E0,-4.533008E-1,4.8621118E-1,-2.5481874E-2,6.6123736E-1,1.4479626E0,1.1023898E0,1.7256979E0,1.483683E0,1.7640995E0,-2.64785E-2,-1.1559701E0,2.9397428E-2,-2.3688478E-2,-2.7583545E-1,6.699089E-1,1.1770451E0,-2.3692233E-2,4.4840917E-1,1.6165609E0,1.1707522E0,-2.3676386E-2,1.1263864E0,3.7278976E-2,-2.1489486E-2,1.5243378E0,3.5679404E-2,1.1703349E0,3.5863414E-2,-2.473947E-2,-2.0237032E-2,1.2145172E-2,1.9746639E-2,3.958493E-3,2.9398821E-2,-1.9576263E-2,-1.8133532E-2,2.1006476E-2,3.4777697E-2,1.439849E-2,7.141128E-3,2.6579985E-2,1.2992485E-2,3.23489E-2,1.51339285E-2,3.173865E-2,2.6788443E-2,-1.7998157E-2],"categories":[],"categories_nodes":[],"categories_segments":[],"categories_sizes":[],"default_left":[0,0,0,0,0,0,0,0,0,0,0,0,0,0,0,0,0,0,0,0,0,0,0,0,0,0,0,0,0,0,0,0,0,0,0,0,0,0,0,0,0,0,0,0,0,0,0,0,0,0,0,0,0,0,0,0,0,0,0,0,0],"id":17,"left_children":[1,3,5,-1,7,9,11,13,15,17,-1,19,21,23,25,27,-1,29,31,33,35,37,39,-1,41,-1,-1,43,45,47,-1,49,51,53,-1,55,-1,-1,57,-1,59,-1,-1,-1,-1,-1,-1,-1,-1,-1,-1,-1,-1,-1,-1,-1,-1,-1,-1,-1,-1],"loss_changes":[4.3145864E3,1.4162915E2,1.1237793E1,0E0,3.4258084E2,8.551498E0,1.3535889E1,5.6969604E0,6.0107067E1,5.100849E0,0E0,1.2039703E1,5.8066406E0,6.8859863E-1,1.7319197E1,2.7667076E1,0E0,1.7379555E1,3.9117203E0,1.5609169E1,2.7654724E0,1.5662445E1,5.4329834E0,0E0,3.0632828E1,0E0,0E0,2.5860037E1,2.3547913E1,1.0041578E1,0E0,5.319934E0,1.2881393E0,1.0968224E1,0E0,2.1176338E0,0E0,0E0,5.1973267E0,0E0,9.448563E0,0E0,0E0,0E0,0E0,0E0,0E0,0E0,0E0,0E0,0E0,0E0,0E0,0E0,0E0,0E0,0E0,0E0,0E0,0E0,0E0],"parents":[2147483647,0,0,1,1,2,2,4,4,5,5,6,6,7,7,8,8,9,9,11,11,12,12,13,13,14,14,15,15,17,17,18,18,19,19,20,20,21,21,22,22,24,24,27,27,28,28,29,29,31,31,32,32,33,33,35,35,38,38,40,40],"right_children":[2,4,6,-1,8,10,12,14,16,18,-1,20,22,24,26,28,-1,30,32,34,36,38,40,-1,42,-1,-1,44,46,48,-1,50,52,54,-1,56,-1,-1,58,-1,60,-1,-1,-1,-1,-1,-1,-1,-1,-1,-1,-1,-1,-1,-1,-1,-1,-1,-1,-1,-1],"split_conditions":[1E0,2.1E1,1.003E2,-2.6462156E-2,9.49E1,9.52E1,2.3E1,9.45E1,4.5E1,2.9E1,-1.7175823E-2,1.099E2,1.026E2,8.88E1,7.58E1,2.183E3,-2.5481874E-2,2.23E3,8.63E1,1.096E2,1.9E1,2.4E1,3.7E1,-2.64785E-2,8.89E1,2.9397428E-2,-2.3688478E-2,9.95E1,2.392E3,8.65E1,-2.3692233E-2,2.524E3,9.97E1,2E1,-2.3676386E-2,9.48E1,3.7278976E-2,-2.1489486E-2,2.6E1,3.5679404E-2,9.37E1,3.5863414E-2,-2.473947E-2,-2.0237032E-2,1.2145172E-2,1.9746639E-2,3.958493E-3,2.9398821E-2,-1.9576263E-2,-1.8133532E-2,2.1006476E-2,3.4777697E-2,1.439849E-2,7.141128E-3,2.6579985E-2,1.2992485E-2,3.23489E-2,1.51339285E-2,3.173865E-2,2.6788443E-2,-1.7998157E-2],"split_indices":[5,3,2,0,2,0,3,2,3,3,0,2,2,2,0,1,0,1,0,2,3,3,3,0,2,0,0,2,1,0,0,1,2,3,0,0,0,0,3,0,0,0,0,0,0,0,0,0,0,0,0,0,0,0,0,0,0,0,0,0,0],"split_type":[0,0,0,0,0,0,0,0,0,0,0,0,0,0,0,0,0,0,0,0,0,0,0,0,0,0,0,0,0,0,0,0,0,0,0,0,0,0,0,0,0,0,0,0,0,0,0,0,0,0,0,0,0,0,0,0,0,0,0,0,0],"sum_hessian":[2.47263E3,1.5108455E3,9.6178455E2,9.05177E2,6.056684E2,4.378202E1,9.180025E2,3.897837E2,2.1588472E2,4.2302532E1,1.4794899E0,1.4772139E2,7.702811E2,3.7970447E2,1.0079239E1,1.9532143E2,2.0563278E1,1.5789367E1,2.6513165E1,9.000483E1,5.7716568E1,1.3385051E2,6.364306E2,2.6175992E2,1.17944534E2,2.497995E0,7.581244E0,3.7841057E1,1.5748038E2,1.2624015E1,3.165352E0,4.354811E0,2.2158354E1,8.786538E1,2.1394482E0,1.2533194E1,4.5183372E1,1.6961002E0,1.3215442E2,6.138821E2,2.254855E1,2.5879111E0,1.1535662E2,2.0559721E1,1.7281336E1,9.350421E1,6.397617E1,1.1394162E1,1.2298527E0,1.1836804E0,3.171131E0,1.8671717E1,3.4866378E0,1.4836004E1,7.302937E1,7.5377765E0,4.995417E0,1.0950463E1,1.2120395E2,2.1172312E1,1.3762385E0],"tree_param":{"num_deleted":"0","num_feature":"8","num_nodes":"61","size_leaf_vector":"1"}},{"base_weights":[-1.853525E-2,-1.0632647E0,1.605686E0,-2.629242E-2,-6.8809366E-1,1.0683867E0,1.6301626E0,-1.2458941E0,3.0698988E-1,1.1531956E0,-1.7040124E-2,1.3295072E0,1.6861169E0,-1.2659366E0,-4.4733167E-1,5.1122683E-1,-9.945161E-1,4.3415385E-1,1.3301495E0,1.0796386E0,1.6949213E0,1.455138E0,1.7323977E0,-1.1372007E0,-2.624117E-2,2.8964657E-2,-2.3515161E-2,-4.235951E-1,6.7895657E-1,-2.5485776E-2,2.5867648E-2,1.1971489E0,-2.2093521E-2,3.4484703E-2,7.7466667E-1,1.1467217E0,-2.3418745E-2,1.1072705E0,3.661291E-2,-2.1270448E-2,1.4951096E0,3.5041638E-2,1.1463913E0,-2.4312107E-2,7.521326E-3,-2.7214983E-2,-2.715198E-5,7.7706617E-3,2.3768038E-2,3.0240852E-2,1.41692525E-2,3.43055E-2,-2.8369317E-2,6.9962274E-3,2.6037252E-2,1.2754778E-2,3.184304E-2,1.4847566E-2,3.1131469E-2,2.6246302E-2,-1.7844265E-2],"categories":[],"categories_nodes":[],"categories_segments":[],"categories_sizes":[],"default_left":[0,0,0,0,0,0,0,0,0,0,0,0,0,0,0,0,0,0,0,0,0,0,0,0,0,0,0,0,0,0,0,0,0,0,0,0,0,0,0,0,0,0,0,0,0,0,0,0,0,0,0,0,0,0,0,0,0,0,0,0,0],"id":18,"left_children":[1,3,5,-1,7,9,11,13,15,17,-1,19,21,23,25,27,29,31,33,35,37,39,41,43,-1,-1,-1,45,47,-1,-1,49,-1,-1,51,53,-1,55,-1,-1,57,-1,59,-1,-1,-1,-1,-1,-1,-1,-1,-1,-1,-1,-1,-1,-1,-1,-1,-1,-1],"loss_changes":[4.167685E3,1.4004578E2,1.0902344E1,0E0,3.3438733E2,8.277477E0,1.3195557E1,5.6083984E0,5.8177597E1,4.9346046E0,0E0,1.1748077E1,5.7092285E0,7.3931885E-1,1.6880543E1,2.9794563E1,2.0701479E1,1.3110948E1,6.168705E0,1.50924835E1,2.6497498E0,1.515741E1,5.32959E0,1.3108337E1,0E0,0E0,0E0,1.1570116E1,2.3202316E1,0E0,0E0,3.552437E-2,0E0,0E0,3.552786E1,1.0540764E1,0E0,2.0655289E0,0E0,0E0,5.001251E0,0E0,9.142431E0,0E0,0E0,0E0,0E0,0E0,0E0,0E0,0E0,0E0,0E0,0E0,0E0,0E0,0E0,0E0,0E0,0E0,0E0],"parents":[2147483647,0,0,1,1,2,2,4,4,5,5,6,6,7,7,8,8,9,9,11,11,12,12,13,13,14,14,15,15,16,16,17,17,18,18,19,19,20,20,21,21,22,22,23,23,27,27,28,28,31,31,34,34,35,35,37,37,40,40,42,42],"right_children":[2,4,6,-1,8,10,12,14,16,18,-1,20,22,24,26,28,30,32,34,36,38,40,42,44,-1,-1,-1,46,48,-1,-1,50,-1,-1,52,54,-1,56,-1,-1,58,-1,60,-1,-1,-1,-1,-1,-1,-1,-1,-1,-1,-1,-1,-1,-1,-1,-1,-1,-1],"split_conditions":[1E0,2.1E1,1.003E2,-2.629242E-2,9.49E1,9.52E1,2.3E1,9.45E1,4.2E1,8.48E1,-1.7040124E-2,1.099E2,1.026E2,8.42E1,7.58E1,2.4E1,1.05E2,9.95E1,8.83E1,1.096E2,1.9E1,2.4E1,3.7E1,8.41E1,-2.624117E-2,2.8964657E-2,-2.3515161E-2,9.79E1,9.94E1,-2.5485776E-2,2.5867648E-2,7.4E1,-2.2093521E-2,3.4484703E-2,9.86E1,2E1,-2.3418745E-2,9.48E1,3.661291E-2,-2.1270448E-2,2.6E1,3.5041638E-2,9.37E1,-2.4312107E-2,7.521326E-3,-2.7214983E-2,-2.715198E-5,7.7706617E-3,2.3768038E-2,3.0240852E-2,1.41692525E-2,3.43055E-2,-2.8369317E-2,6.9962274E-3,2.6037252E-2,1.2754778E-2,3.184304E-2,1.4847566E-2,3.1131469E-2,2.6246302E-2,-1.7844265E-2],"split_indices":[5,3,2,0,2,0,3,2,3,0,0,2,2,0,0,3,2,2,0,2,3,3,3,0,0,0,0,2,2,0,0,0,0,0,2,3,0,0,0,0,3,0,0,0,0,0,0,0,0,0,0,0,0,0,0,0,0,0,0,0,0],"split_type":[0,0,0,0,0,0,0,0,0,0,0,0,0,0,0,0,0,0,0,0,0,0,0,0,0,0,0,0,0,0,0,0,0,0,0,0,0,0,0,0,0,0,0,0,0,0,0,0,0,0,0,0,0,0,0,0,0,0,0,0,0],"sum_hessian":[2.454093E3,1.4936771E3,9.604157E2,8.9292957E2,6.007476E2,4.379093E1,9.166248E2,3.8479584E2,2.1595178E2,4.232142E1,1.4695103E0,1.4770926E2,7.689155E2,3.7480365E2,9.992176E0,1.8718521E2,2.876657E1,9.040276E0,3.3281143E1,9.007256E1,5.7636692E1,1.3376411E2,6.351514E2,1.0562865E2,2.69175E2,2.4995356E0,7.49264E0,2.8244173E1,1.5894104E2,2.602693E1,2.7396402E0,6.192099E0,2.848177E0,1.8238129E1,1.5043014E1,8.794175E1,2.130813E0,1.25324955E1,4.5104195E1,1.6896571E0,1.3207446E2,6.1258453E2,2.256688E1,1.0061246E2,5.016184E0,8.082467E0,2.0161707E1,1.0235397E2,5.6587067E1,2.4921446E0,3.6999545E0,1.06802635E1,4.3627505E0,1.4860871E1,7.308088E1,7.5432715E0,4.989224E0,1.0957639E1,1.2111681E2,2.1197836E1,1.3690418E0],"tree_param":{"num_deleted":"0","num_feature":"8","num_nodes":"61","size_leaf_vector":"1"}},{"base_weights":[-1.8331224E-2,-1.0544081E0,1.576908E0,-2.612815E-2,-6.802553E-1,1.0487294E0,1.6010021E0,-1.2372522E0,3.0096456E-1,1.1320924E0,-1.6906563E-2,1.3041612E0,1.6563582E0,-1.2573105E0,-4.4151977E-1,4.660003E-1,-2.5146503E-2,6.326659E-1,1.3948207E0,1.0576732E0,1.6656168E0,1.4277737E0,1.7022444E0,-1.1277939E0,-2.607627E-2,2.8547075E-2,-2.334589E-2,-2.798688E-1,6.4497316E-1,1.1326385E0,-2.3398297E-2,1.5524678E0,4.0891948E-1,1.123526E0,-2.316756E-2,1.0887345E0,3.5981618E-2,-2.1056356E-2,1.4670972E0,3.4435365E-2,1.1233115E0,-2.4128977E-2,7.3820935E-3,-2.0014891E-2,1.1538605E-2,1.9057568E-2,3.7119421E-3,2.8308047E-2,-1.9118994E-2,1.4233199E-2,3.3473335E-2,-2.0928157E-2,2.7937101E-2,6.854612E-3,2.5514616E-2,1.2522406E-2,3.135813E-2,1.4568263E-2,3.0550433E-2,2.5724303E-2,-1.7693067E-2],"categories":[],"categories_nodes":[],"categories_segments":[],"categories_sizes":[],"default_left":[0,0,0,0,0,0,0,0,0,0,0,0,0,0,0,0,0,0,0,0,0,0,0,0,0,0,0,0,0,0,0,0,0,0,0,0,0,0,0,0,0,0,0,0,0,0,0,0,0,0,0,0,0,0,0,0,0,0,0,0,0],"id":19,"left_children":[1,3,5,-1,7,9,11,13,15,17,-1,19,21,23,25,27,-1,29,31,33,35,37,39,41,-1,-1,-1,43,45,47,-1,49,51,53,-1,55,-1,-1,57,-1,59,-1,-1,-1,-1,-1,-1,-1,-1,-1,-1,-1,-1,-1,-1,-1,-1,-1,-1,-1,-1],"loss_changes":[4.0276863E3,1.384065E2,1.0531982E1,0E0,3.2647E2,8.024418E0,1.2887695E1,5.522827E0,5.6356308E1,4.799225E0,0E0,1.1481155E1,5.626465E0,7.6342773E-1,1.6456348E1,2.6454197E1,0E0,1.6426954E1,3.646225E0,1.4597893E1,2.5473022E0,1.4676056E1,5.237915E0,1.2854477E1,0E0,0E0,0E0,2.4533136E1,2.2317787E1,9.400446E0,0E0,1.1924286E0,8.87308E0,1.0138596E1,0E0,2.017229E0,0E0,0E0,4.8208923E0,0E0,8.85009E0,0E0,0E0,0E0,0E0,0E0,0E0,0E0,0E0,0E0,0E0,0E0,0E0,0E0,0E0,0E0,0E0,0E0,0E0,0E0,0E0],"parents":[2147483647,0,0,1,1,2,2,4,4,5,5,6,6,7,7,8,8,9,9,11,11,12,12,13,13,14,14,15,15,17,17,18,18,19,19,20,20,21,21,22,22,23,23,27,27,28,28,29,29,31,31,32,32,33,33,35,35,38,38,40,40],"right_children":[2,4,6,-1,8,10,12,14,16,18,-1,20,22,24,26,28,-1,30,32,34,36,38,40,42,-1,-1,-1,44,46,48,-1,50,52,54,-1,56,-1,-1,58,-1,60,-1,-1,-1,-1,-1,-1,-1,-1,-1,-1,-1,-1,-1,-1,-1,-1,-1,-1,-1,-1],"split_conditions":[1E0,2.1E1,1.003E2,-2.612815E-2,9.49E1,9.52E1,2.3E1,9.45E1,4.5E1,2.9E1,-1.6906563E-2,1.099E2,1.026E2,8.42E1,7.58E1,2.183E3,-2.5146503E-2,2.23E3,9.97E1,1.096E2,1.9E1,2.4E1,3.7E1,8.41E1,-2.607627E-2,2.8547075E-2,-2.334589E-2,9.95E1,2.392E3,8.65E1,-2.3398297E-2,8.63E1,2.642E3,2E1,-2.316756E-2,9.48E1,3.5981618E-2,-2.1056356E-2,2.6E1,3.4435365E-2,9.37E1,-2.4128977E-2,7.3820935E-3,-2.0014891E-2,1.1538605E-2,1.9057568E-2,3.7119421E-3,2.8308047E-2,-1.9118994E-2,1.4233199E-2,3.3473335E-2,-2.0928157E-2,2.7937101E-2,6.854612E-3,2.5514616E-2,1.2522406E-2,3.135813E-2,1.4568263E-2,3.0550433E-2,2.5724303E-2,-1.7693067E-2],"split_indices":[5,3,2,0,2,0,3,2,3,3,0,2,2,0,0,1,0,1,2,2,3,3,3,0,0,0,0,2,1,0,0,0,1,3,0,0,0,0,3,0,0,0,0,0,0,0,0,0,0,0,0,0,0,0,0,0,0,0,0,0,0],"split_type":[0,0,0,0,0,0,0,0,0,0,0,0,0,0,0,0,0,0,0,0,0,0,0,0,0,0,0,0,0,0,0,0,0,0,0,0,0,0,0,0,0,0,0,0,0,0,0,0,0,0,0,0,0,0,0,0,0,0,0,0,0],"sum_hessian":[2.4348948E3,1.476364E3,9.5853076E2,8.8070197E2,5.9566205E2,4.3760548E1,9.147702E2,3.79803E2,2.1585904E2,4.2301052E1,1.4594977E0,1.476381E2,7.671321E2,3.6989883E2,9.904167E0,1.9582094E2,2.0038097E1,1.5756745E1,2.6544306E1,9.01132E1,5.7524914E1,1.3361871E2,6.3351337E2,1.0439598E2,2.6550287E2,2.499998E0,7.4041696E0,3.7785633E1,1.5803531E2,1.2626308E1,3.130437E0,2.2389517E1,4.1547885E0,8.7991425E1,2.12177E0,1.2528686E1,4.4996227E1,1.6829351E0,1.3193578E2,6.109361E2,2.2577269E1,9.936866E1,5.027322E0,2.0429274E1,1.7356358E1,9.397352E1,6.406179E1,1.1404609E1,1.2216997E0,3.6865046E0,1.8703012E1,1.6560603E0,2.498728E0,1.4884951E1,7.3106476E1,7.5480914E0,4.9805946E0,1.0963475E1,1.209723E2,2.1215523E1,1.361745E0],"tree_param":{"num_deleted":"0","num_feature":"8","num_nodes":"61","size_leaf_vector":"1"}},{"base_weights":[-1.8146494E-2,-1.0456728E0,1.5493639E0,-2.5969107E-2,-6.7244256E-1,1.0290068E0,1.5731473E0,-1.2489259E0,2.6127002E-1,1.1109403E0,-1.677508E-2,1.2797829E0,1.6279739E0,-2.5990913E-2,-1.1264845E0,4.5850825E-1,-9.98254E-1,6.1992663E-1,1.368949E0,1.0364465E0,1.6376781E0,1.4015086E0,1.6735252E0,3.6200758E-2,-1.2101086E0,-7.035887E-2,7.774229E-1,-2.5273189E-2,2.5445852E-2,1.1105474E0,-2.3171015E-2,1.5229139E0,4.0280834E-1,1.1011143E0,-2.292256E-2,1.0707486E0,3.538249E-2,-2.0847024E-2,1.4402163E0,3.385826E-2,1.1010419E0,-2.5824506E-2,-1.7747853E-2,-1.8272871E-2,5.2935127E-3,2.3080835E-2,5.4207456E-4,2.7776437E-2,-1.8939879E-2,1.3992482E-2,3.2833245E-2,-2.0723224E-2,2.755444E-2,6.7161894E-3,2.5010793E-2,1.2295185E-2,3.0892882E-2,1.4295744E-2,2.9993704E-2,2.5221173E-2,-1.7544486E-2],"categories":[],"categories_nodes":[],"categories_segments":[],"categories_sizes":[],"default_left":[0,0,0,0,0,0,0,0,0,0,0,0,0,0,0,0,0,0,0,0,0,0,0,0,0,0,0,0,0,0,0,0,0,0,0,0,0,0,0,0,0,0,0,0,0,0,0,0,0,0,0,0,0,0,0,0,0,0,0,0,0],"id":20,"left_children":[1,3,5,-1,7,9,11,13,15,17,-1,19,21,-1,23,25,27,29,31,33,35,37,39,-1,41,43,45,-1,-1,47,-1,49,51,53,-1,55,-1,-1,57,-1,59,-1,-1,-1,-1,-1,-1,-1,-1,-1,-1,-1,-1,-1,-1,-1,-1,-1,-1,-1,-1],"loss_changes":[3.8936155E3,1.3689136E2,1.0227295E1,0E0,3.1882126E2,7.7766876E0,1.2609131E1,8.045654E-1,5.677487E1,4.634182E0,0E0,1.1236343E1,5.555908E0,0E0,3.0323257E1,3.3228683E1,2.0293766E1,1.5889357E1,3.4836922E0,1.4124084E1,2.456482E0,1.4216614E1,5.156616E0,0E0,1.7858734E0,2.1404968E1,3.4664856E1,0E0,0E0,9.11783E0,0E0,1.1389198E0,8.646177E0,9.75956E0,0E0,1.9723873E0,0E0,0E0,4.6545715E0,0E0,8.570665E0,0E0,0E0,0E0,0E0,0E0,0E0,0E0,0E0,0E0,0E0,0E0,0E0,0E0,0E0,0E0,0E0,0E0,0E0,0E0,0E0],"parents":[2147483647,0,0,1,1,2,2,4,4,5,5,6,6,7,7,8,8,9,9,11,11,12,12,14,14,15,15,16,16,17,17,18,18,19,19,20,20,21,21,22,22,24,24,25,25,26,26,29,29,31,31,32,32,33,33,35,35,38,38,40,40],"right_children":[2,4,6,-1,8,10,12,14,16,18,-1,20,22,-1,24,26,28,30,32,34,36,38,40,-1,42,44,46,-1,-1,48,-1,50,52,54,-1,56,-1,-1,58,-1,60,-1,-1,-1,-1,-1,-1,-1,-1,-1,-1,-1,-1,-1,-1,-1,-1,-1,-1,-1,-1],"split_conditions":[1E0,2.1E1,1.003E2,-2.5969107E-2,9.45E1,9.52E1,2.3E1,8.88E1,4.2E1,2.9E1,-1.677508E-2,1.099E2,1.026E2,-2.5990913E-2,8.89E1,3.1E1,1.05E2,2.23E3,9.97E1,1.096E2,1.9E1,2.4E1,3.7E1,3.6200758E-2,2.455E3,2.238E3,3.7E1,-2.5273189E-2,2.5445852E-2,8.65E1,-2.3171015E-2,8.63E1,2.642E3,2E1,-2.292256E-2,9.48E1,3.538249E-2,-2.0847024E-2,2.6E1,3.385826E-2,9.37E1,-2.5824506E-2,-1.7747853E-2,-1.8272871E-2,5.2935127E-3,2.3080835E-2,5.4207456E-4,2.7776437E-2,-1.8939879E-2,1.3992482E-2,3.2833245E-2,-2.0723224E-2,2.755444E-2,6.7161894E-3,2.5010793E-2,1.2295185E-2,3.0892882E-2,1.4295744E-2,2.9993704E-2,2.5221173E-2,-1.7544486E-2],"split_indices":[5,3,2,0,2,0,3,2,3,3,0,2,2,0,2,3,2,1,2,2,3,3,3,0,1,1,3,0,0,0,0,0,1,3,0,0,0,0,3,0,0,0,0,0,0,0,0,0,0,0,0,0,0,0,0,0,0,0,0,0,0],"split_type":[0,0,0,0,0,0,0,0,0,0,0,0,0,0,0,0,0,0,0,0,0,0,0,0,0,0,0,0,0,0,0,0,0,0,0,0,0,0,0,0,0,0,0,0,0,0,0,0,0,0,0,0,0,0,0,0,0,0,0,0,0],"sum_hessian":[2.4154006E3,1.4592039E3,9.5619684E2,8.6850256E2,5.9070123E2,4.3728413E1,9.124684E2,3.6500555E2,2.2569565E2,4.2278954E1,1.4494578E0,1.4751143E2,7.64957E2,2.5144113E2,1.1356444E2,1.9568745E2,3.0008192E1,1.5735541E1,2.6543413E1,9.012827E1,5.7383156E1,1.3341786E2,6.315391E2,2.572827E0,1.10991615E2,7.390599E1,1.2178147E2,2.7264666E1,2.743527E0,1.2627586E1,3.1079547E0,2.2397797E1,4.145616E0,8.801593E1,2.1123414E0,1.2521925E1,4.4861233E1,1.6759486E0,1.3174191E2,6.089589E2,2.2580158E1,8.629877E1,2.4692844E1,2.0522833E1,5.3383152E1,8.0724266E1,4.1057205E1,1.1409505E1,1.2180815E0,3.6920724E0,1.8705725E1,1.648949E0,2.4966671E0,1.490827E1,7.310766E1,7.552267E0,4.969658E0,1.0968038E1,1.2077387E2,2.1225803E1,1.3543551E0],"tree_param":{"num_deleted":"0","num_feature":"8","num_nodes":"61","size_leaf_vector":"1"}},{"base_weights":[-1.7957017E-2,-1.0372074E0,1.5230118E0,-2.5815079E-2,-6.6487616E-1,1.2563089E0,1.570141E0,-1.2206924E0,2.897872E-1,1.0159149E0,1.6110083E0,1.2919961E0,1.6461368E0,-1.2406828E0,-4.3899918E-1,4.4764727E-1,-2.4829097E-2,1.0794406E0,-2.2683501E-2,1.0532848E0,3.481318E-2,-2.0642277E-2,1.3198682E0,1.6654104E0,1.0795333E0,-1.108825E0,-2.5764663E-2,2.7823824E-2,-2.3151202E-2,-4.232281E-1,5.9556985E-1,3.2904354E-1,1.22623E0,6.036474E-1,3.04461E-2,6.5640223E-1,1.3784026E0,1.5998765E0,3.4740068E-2,1.2367868E0,-1.7398437E-2,-2.3780085E-2,7.6569617E-3,8.1955746E-4,-2.544289E-2,5.929415E-3,2.2134483E-2,1.8772146E-2,-2.3719242E-2,1.436414E-2,2.6797289E-2,2.385047E-2,-2.2905247E-2,-4.7781053E-3,2.4990365E-2,2.9442584E-2,1.8772315E-2,3.2194443E-2,1.0428308E-2,1.4735555E-2,2.8358072E-2],"categories":[],"categories_nodes":[],"categories_segments":[],"categories_sizes":[],"default_left":[0,0,0,0,0,0,0,0,0,0,0,0,0,0,0,0,0,0,0,0,0,0,0,0,0,0,0,0,0,0,0,0,0,0,0,0,0,0,0,0,0,0,0,0,0,0,0,0,0,0,0,0,0,0,0,0,0,0,0,0,0],"id":21,"left_children":[1,3,5,-1,7,9,11,13,15,17,19,21,23,25,27,29,-1,31,-1,33,-1,-1,35,37,39,41,-1,-1,-1,43,45,47,49,51,-1,53,55,57,-1,59,-1,-1,-1,-1,-1,-1,-1,-1,-1,-1,-1,-1,-1,-1,-1,-1,-1,-1,-1,-1,-1],"loss_changes":[3.7654045E3,1.3536072E2,1.002417E1,0E0,3.1161826E2,1.1011322E1,1.493335E1,5.251892E0,5.292826E1,1.3669868E1,2.375946E0,1.2882629E1,5.084839E0,8.359375E-1,1.5809994E1,2.5649391E1,0E0,9.401749E0,0E0,1.9306746E0,0E0,0E0,5.937134E0,7.2021484E-2,8.303326E0,1.2762001E1,0E0,0E0,0E0,1.156277E1,2.5500534E1,1.5825179E1,3.3145905E0,1.017733E1,0E0,8.896902E0,5.2538757E0,2.6638184E0,0E0,9.683876E-1,0E0,0E0,0E0,0E0,0E0,0E0,0E0,0E0,0E0,0E0,0E0,0E0,0E0,0E0,0E0,0E0,0E0,0E0,0E0,0E0,0E0],"parents":[2147483647,0,0,1,1,2,2,4,4,5,5,6,6,7,7,8,8,9,9,10,10,11,11,12,12,13,13,14,14,15,15,17,17,19,19,22,22,23,23,24,24,25,25,29,29,30,30,31,31,32,32,33,33,35,35,36,36,37,37,39,39],"right_children":[2,4,6,-1,8,10,12,14,16,18,20,22,24,26,28,30,-1,32,-1,34,-1,-1,36,38,40,42,-1,-1,-1,44,46,48,50,52,-1,54,56,58,-1,60,-1,-1,-1,-1,-1,-1,-1,-1,-1,-1,-1,-1,-1,-1,-1,-1,-1,-1,-1,-1,-1],"split_conditions":[1E0,2.1E1,2.3E1,-2.5815079E-2,9.49E1,1.099E2,1.026E2,9.45E1,4.5E1,1.096E2,1.9E1,2.4E1,3.7E1,8.42E1,7.58E1,2.4E1,-2.4829097E-2,2E1,-2.2683501E-2,9.48E1,3.481318E-2,-2.0642277E-2,2.6E1,1.066E2,9.37E1,8.41E1,-2.5764663E-2,2.7823824E-2,-2.3151202E-2,9.9E1,9.94E1,1.9E1,1.046E2,8.72E1,3.04461E-2,2.346E3,2.361E3,2.765E3,3.4740068E-2,2.138E3,-1.7398437E-2,-2.3780085E-2,7.6569617E-3,8.1955746E-4,-2.544289E-2,5.929415E-3,2.2134483E-2,1.8772146E-2,-2.3719242E-2,1.436414E-2,2.6797289E-2,2.385047E-2,-2.2905247E-2,-4.7781053E-3,2.4990365E-2,2.9442584E-2,1.8772315E-2,3.2194443E-2,1.0428308E-2,1.4735555E-2,2.8358072E-2],"split_indices":[5,3,3,0,2,2,2,2,3,2,3,3,3,0,0,3,0,3,0,0,0,0,3,2,0,0,0,0,0,2,2,3,2,0,0,1,1,1,0,1,0,0,0,0,0,0,0,0,0,0,0,0,0,0,0,0,0,0,0,0,0],"split_type":[0,0,0,0,0,0,0,0,0,0,0,0,0,0,0,0,0,0,0,0,0,0,0,0,0,0,0,0,0,0,0,0,0,0,0,0,0,0,0,0,0,0,0,0,0,0,0,0,0,0,0,0,0,0,0,0,0,0,0,0,0],"sum_hessian":[2.3953745E3,1.4419474E3,9.5342725E2,8.563392E2,5.8560815E2,1.4733253E2,8.060947E2,3.6994385E2,2.1566432E2,9.011926E1,5.721327E1,1.7684456E2,6.292502E2,3.601465E2,9.797332E0,1.961503E2,1.951403E1,8.8016716E1,2.1025484E0,1.2512369E1,4.47009E1,1.6687119E0,1.7517584E2,6.066742E2,2.2575966E1,1.01898506E2,2.5824802E2,2.498223E0,7.2991085E0,2.8209476E1,1.6794081E2,1.4930855E1,7.308586E1,7.555831E0,4.9565377E0,1.5192169E1,1.5998367E2,3.2892972E2,2.7774448E2,2.1229088E1,1.346879E0,9.689327E1,5.005231E0,1.8852337E1,9.357139E0,1.0694345E2,6.0997368E1,1.0918319E1,4.0125356E0,1.4697657E1,5.8388206E1,5.8905535E0,1.6652777E0,6.291845E0,8.900325E0,1.2994308E2,3.0040594E1,3.2546582E2,3.4639037E0,6.992597E0,1.423649E1],"tree_param":{"num_deleted":"0","num_feature":"8","num_nodes":"61","size_leaf_vector":"1"}},{"base_weights":[-1.7760819E-2,-1.0289185E0,1.4977299E0,-2.5665857E-2,-6.574516E-1,9.865246E-1,1.5212631E0,-1.2127306E0,2.8398952E-1,1.0670654E0,-1.678027E-2,1.2339426E0,1.575201E0,-1.2327439E0,-4.3350405E-1,4.3833247E-1,-2.4672179E-2,3.8516143E-1,1.2362237E0,9.9641955E-1,1.5855048E0,1.4186884E0,1.6407186E0,-2.5688626E-2,-1.1080862E0,2.7444916E-2,-2.2990147E-2,-4.1703385E-1,5.829154E-1,1.121663E0,-2.2049908E-2,3.2463796E-2,6.9778186E-1,1.058873E0,-2.245014E-2,1.035989E0,3.4271553E-2,7.18814E-1,1.4368029E0,1.6632313E0,1.131122E0,3.587926E-2,-2.3866573E-2,-2.7002087E-2,2.4411527E-5,1.6510177E-2,-3.7166284E-4,2.8520899E-2,1.3163727E-2,3.1940863E-2,-2.8169006E-2,6.442234E-3,2.4062105E-2,1.1838433E-2,3.0016674E-2,-2.044195E-2,2.7026331E-2,2.9116342E-2,1.4141991E-2,3.3330675E-2,1.6435837E-2,2.520995E-3,2.6787063E-2],"categories":[],"categories_nodes":[],"categories_segments":[],"categories_sizes":[],"default_left":[0,0,0,0,0,0,0,0,0,0,0,0,0,0,0,0,0,0,0,0,0,0,0,0,0,0,0,0,0,0,0,0,0,0,0,0,0,0,0,0,0,0,0,0,0,0,0,0,0,0,0,0,0,0,0,0,0,0,0,0,0,0,0],"id":22,"left_children":[1,3,5,-1,7,9,11,13,15,17,-1,19,21,23,25,27,-1,29,31,33,35,37,39,-1,41,-1,-1,43,45,47,-1,-1,49,51,-1,53,-1,55,57,59,61,-1,-1,-1,-1,-1,-1,-1,-1,-1,-1,-1,-1,-1,-1,-1,-1,-1,-1,-1,-1,-1,-1],"loss_changes":[3.642669E3,1.3388062E2,9.943848E0,0E0,3.0436316E2,7.4691505E0,1.2121582E1,5.173279E0,5.126761E1,4.514103E0,0E0,1.078447E1,5.4711914E0,8.7231445E-1,1.5420753E1,2.464516E1,0E0,1.22495165E1,5.995434E0,1.3238617E1,2.3074036E0,1.9060669E0,4.195923E0,0E0,2.9776047E1,0E0,0E0,1.1363151E1,2.4705105E1,7.976246E-2,0E0,0E0,3.266675E1,9.066307E0,0E0,1.8970146E0,0E0,1.0024637E1,2.0918884E0,3.4301758E-2,5.175865E0,0E0,0E0,0E0,0E0,0E0,0E0,0E0,0E0,0E0,0E0,0E0,0E0,0E0,0E0,0E0,0E0,0E0,0E0,0E0,0E0,0E0,0E0],"parents":[2147483647,0,0,1,1,2,2,4,4,5,5,6,6,7,7,8,8,9,9,11,11,12,12,13,13,14,14,15,15,17,17,18,18,19,19,20,20,21,21,22,22,24,24,27,27,28,28,29,29,32,32,33,33,35,35,37,37,38,38,39,39,40,40],"right_children":[2,4,6,-1,8,10,12,14,16,18,-1,20,22,24,26,28,-1,30,32,34,36,38,40,-1,42,-1,-1,44,46,48,-1,-1,50,52,-1,54,-1,56,58,60,62,-1,-1,-1,-1,-1,-1,-1,-1,-1,-1,-1,-1,-1,-1,-1,-1,-1,-1,-1,-1,-1,-1],"split_conditions":[1E0,2.1E1,1.003E2,-2.5665857E-2,9.49E1,9.52E1,2.3E1,9.45E1,4.5E1,8.48E1,-1.678027E-2,1.099E2,1.038E2,8.88E1,7.58E1,2.4E1,-2.4672179E-2,9.95E1,8.83E1,1.096E2,1.9E1,2.4E1,3.6E1,-2.5688626E-2,8.89E1,2.7444916E-2,-2.2990147E-2,9.79E1,3.7E1,7.4E1,-2.2049908E-2,3.2463796E-2,9.86E1,2E1,-2.245014E-2,9.48E1,3.4271553E-2,8.95E1,9.61E1,2.879E3,2.138E3,3.587926E-2,-2.3866573E-2,-2.7002087E-2,2.4411527E-5,1.6510177E-2,-3.7166284E-4,2.8520899E-2,1.3163727E-2,3.1940863E-2,-2.8169006E-2,6.442234E-3,2.4062105E-2,1.1838433E-2,3.0016674E-2,-2.044195E-2,2.7026331E-2,2.9116342E-2,1.4141991E-2,3.3330675E-2,1.6435837E-2,2.520995E-3,2.6787063E-2],"split_indices":[5,3,2,0,2,0,3,2,3,0,0,2,2,2,0,3,0,2,0,2,3,3,3,0,2,0,0,2,3,0,0,0,2,3,0,0,0,0,0,1,1,0,0,0,0,0,0,0,0,0,0,0,0,0,0,0,0,0,0,0,0,0,0],"split_type":[0,0,0,0,0,0,0,0,0,0,0,0,0,0,0,0,0,0,0,0,0,0,0,0,0,0,0,0,0,0,0,0,0,0,0,0,0,0,0,0,0,0,0,0,0,0,0,0,0,0,0,0,0,0,0,0,0,0,0,0,0,0,0],"sum_hessian":[2.3750947E3,1.424781E3,9.503137E2,8.442191E2,5.805619E2,4.3710983E1,9.066028E2,3.649938E2,2.1556808E2,4.2261913E1,1.4490719E0,1.470679E2,7.5953485E2,3.5528677E2,9.707015E0,1.9631374E2,1.9254353E1,9.05136E0,3.3210552E1,9.00574E1,5.7010487E1,2.3081131E2,5.287236E2,2.4457414E2,1.1071264E2,2.4958878E0,7.2111273E0,2.8112589E1,1.6820114E2,6.2186723E0,2.8326879E0,1.8151133E1,1.5059421E1,8.7965E1,2.0924122E0,1.2493651E1,4.4516838E1,6.84962E0,2.2396169E2,5.04186E2,2.4537554E1,2.5871947E0,1.0812544E2,8.011667E0,2.0100922E1,1.1959446E2,4.860668E1,2.4999921E0,3.7186804E0,1.0722973E1,4.3364472E0,1.493056E1,7.303443E1,7.552298E0,4.941354E0,1.6612387E0,5.188381E0,2.173042E2,6.6574984E0,5.0123822E2,2.947785E0,4.4867306E0,2.0050823E1],"tree_param":{"num_deleted":"0","num_feature":"8","num_nodes":"63","size_leaf_vector":"1"}},{"base_weights":[-1.7552687E-2,-1.0207508E0,1.4735492E0,-2.5521252E-2,-6.500619E-1,1.2121047E0,1.5199492E0,-1.2249026E0,2.4625918E-1,9.7715443E-1,1.56112E0,1.2456362E0,1.5952835E0,-1.0903798E0,-2.5472509E-2,4.319764E-1,-9.76779E-1,1.0385425E0,-2.222225E-2,1.0195066E0,3.3755675E-2,-2.024588E-2,1.2726797E0,1.6144509E0,1.0378059E0,-1.1722605E0,3.9857224E-1,-7.466014E-2,7.3609805E-1,-2.489481E-2,2.4825063E-2,3.1565323E-1,1.1803913E0,5.8130705E-1,2.9603595E-2,6.2182534E-1,1.3304206E0,1.5491658E0,3.3719707E-2,1.1932484E0,-1.7465599E-2,-2.5414927E-2,-1.6405385E-2,-2.0472504E-2,2.7822759E-2,-1.8073557E-2,5.0265E-3,2.1965938E-2,2.634043E-4,1.823871E-2,-2.3562614E-2,1.3636236E-2,2.5852283E-2,2.3236955E-2,-2.2785522E-2,-5.077933E-3,2.4075905E-2,2.8451359E-2,1.7994512E-2,3.1178283E-2,9.827384E-3,1.4253686E-2,2.7341174E-2],"categories":[],"categories_nodes":[],"categories_segments":[],"categories_sizes":[],"default_left":[0,0,0,0,0,0,0,0,0,0,0,0,0,0,0,0,0,0,0,0,0,0,0,0,0,0,0,0,0,0,0,0,0,0,0,0,0,0,0,0,0,0,0,0,0,0,0,0,0,0,0,0,0,0,0,0,0,0,0,0,0,0,0],"id":23,"left_children":[1,3,5,-1,7,9,11,13,15,17,19,21,23,25,-1,27,29,31,-1,33,-1,-1,35,37,39,41,43,45,47,-1,-1,49,51,53,-1,55,57,59,-1,61,-1,-1,-1,-1,-1,-1,-1,-1,-1,-1,-1,-1,-1,-1,-1,-1,-1,-1,-1,-1,-1,-1,-1],"loss_changes":[3.52507E3,1.3249487E2,9.655273E0,0E0,2.9738235E2,1.0593811E1,1.4565674E1,9.1485596E-1,5.1784267E1,1.2820229E1,2.243805E0,1.2105164E1,5.001343E0,1.2707527E1,0E0,3.0410076E1,1.9445072E1,8.745598E0,0E0,1.8604927E0,0E0,0E0,5.7678223E0,2.0092773E-1,8.043768E0,2.2654724E0,9.8650055E0,2.0443748E1,3.224521E1,0E0,0E0,1.5282712E1,3.2574997E0,9.86862E0,0E0,8.550508E0,5.082489E0,2.6082764E0,0E0,8.816452E-1,0E0,0E0,0E0,0E0,0E0,0E0,0E0,0E0,0E0,0E0,0E0,0E0,0E0,0E0,0E0,0E0,0E0,0E0,0E0,0E0,0E0,0E0,0E0],"parents":[2147483647,0,0,1,1,2,2,4,4,5,5,6,6,7,7,8,8,9,9,10,10,11,11,12,12,13,13,15,15,16,16,17,17,19,19,22,22,23,23,24,24,25,25,26,26,27,27,28,28,31,31,32,32,33,33,35,35,36,36,37,37,39,39],"right_children":[2,4,6,-1,8,10,12,14,16,18,20,22,24,26,-1,28,30,32,-1,34,-1,-1,36,38,40,42,44,46,48,-1,-1,50,52,54,-1,56,58,60,-1,62,-1,-1,-1,-1,-1,-1,-1,-1,-1,-1,-1,-1,-1,-1,-1,-1,-1,-1,-1,-1,-1,-1,-1],"split_conditions":[1E0,2.1E1,2.3E1,-2.5521252E-2,9.45E1,1.099E2,1.026E2,8.42E1,4.2E1,1.096E2,1.9E1,2.4E1,3.7E1,8.41E1,-2.5472509E-2,3.1E1,1.05E2,2E1,-2.222225E-2,9.48E1,3.3755675E-2,-2.024588E-2,2.6E1,1.066E2,9.37E1,8.29E1,2.435E3,2.238E3,3.7E1,-2.489481E-2,2.4825063E-2,1.9E1,1.046E2,8.72E1,2.9603595E-2,2.346E3,2.361E3,2.765E3,3.3719707E-2,2.138E3,-1.7465599E-2,-2.5414927E-2,-1.6405385E-2,-2.0472504E-2,2.7822759E-2,-1.8073557E-2,5.0265E-3,2.1965938E-2,2.634043E-4,1.823871E-2,-2.3562614E-2,1.3636236E-2,2.5852283E-2,2.3236955E-2,-2.2785522E-2,-5.077933E-3,2.4075905E-2,2.8451359E-2,1.7994512E-2,3.1178283E-2,9.827384E-3,1.4253686E-2,2.7341174E-2],"split_indices":[5,3,3,0,2,2,2,0,3,2,3,3,3,0,0,3,2,3,0,0,0,0,3,2,0,0,1,1,3,0,0,3,2,0,0,1,1,1,0,1,0,0,0,0,0,0,0,0,0,0,0,0,0,0,0,0,0,0,0,0,0,0,0],"split_type":[0,0,0,0,0,0,0,0,0,0,0,0,0,0,0,0,0,0,0,0,0,0,0,0,0,0,0,0,0,0,0,0,0,0,0,0,0,0,0,0,0,0,0,0,0,0,0,0,0,0,0,0,0,0,0,0,0,0,0,0,0,0,0],"sum_hessian":[2.3545286E3,1.4077345E3,9.4679395E2,8.321495E2,5.755851E2,1.4679381E2,8.000001E2,3.5045804E2,2.2512703E2,9.0004395E1,5.678942E1,1.7614452E2,6.2385565E2,9.939903E1,2.5105899E2,1.960099E2,2.9117125E1,8.792244E1,2.081952E0,1.2478854E1,4.431057E1,1.6535418E0,1.7449097E2,6.012859E2,2.256976E1,9.4419395E1,4.979636E0,7.3807846E1,1.2220206E2,2.6370144E1,2.746981E0,1.495157E1,7.297087E1,7.554633E0,4.924221E0,1.5177703E1,1.5931326E2,3.2622018E2,2.7506567E2,2.1219444E1,1.3503144E0,7.17374E1,2.2682E1,2.0339704E0,2.945666E0,2.0331179E1,5.3476665E1,8.106694E1,4.113512E1,1.0964372E1,3.9871976E0,1.4706941E1,5.8263927E1,5.891517E0,1.6631161E0,6.284621E0,8.893082E0,1.2933833E2,2.9974928E1,3.2277185E2,3.4483323E0,6.990881E0,1.4228563E1],"tree_param":{"num_deleted":"0","num_feature":"8","num_nodes":"63","size_leaf_vector":"1"}},{"base_weights":[-1.7364504E-2,-1.0128512E0,1.4502519E0,-2.5381073E-2,-6.429548E-1,9.4755375E-1,1.4735583E0,-1.1974355E0,2.7350682E-1,1.0269086E0,-1.6781026E-2,1.1912856E0,1.5268072E0,-1.2173995E0,-4.3124485E-1,4.2125627E-1,-2.4379402E-2,5.533595E-1,1.2774673E0,9.588573E-1,1.5377767E0,1.3721329E0,1.5918045E0,-1.0819771E0,-2.5331415E-2,2.6790136E-2,-2.2806175E-2,-2.8737238E-1,5.893674E-1,2.8932955E-2,-4.2037278E-1,3.7900785E-1,1.431347E0,1.0192463E0,-2.1999624E-2,1.0032235E0,3.3263776E-2,6.936865E-1,1.3896611E0,1.6142598E0,1.088367E0,-2.328331E-2,7.819819E-3,-1.98283E-2,1.0868181E-2,1.7779712E-2,2.8408982E-3,2.772533E-2,-2.7224137E-2,-1.8616565E-2,1.9445004E-2,3.0798651E-2,1.26664955E-2,6.180666E-3,2.317518E-2,1.1402599E-2,2.920592E-2,-2.0053918E-2,2.6210047E-2,2.816858E-2,1.3475622E-2,3.2350283E-2,1.5828395E-2,2.230858E-3,2.5834583E-2],"categories":[],"categories_nodes":[],"categories_segments":[],"categories_sizes":[],"default_left":[0,0,0,0,0,0,0,0,0,0,0,0,0,0,0,0,0,0,0,0,0,0,0,0,0,0,0,0,0,0,0,0,0,0,0,0,0,0,0,0,0,0,0,0,0,0,0,0,0,0,0,0,0,0,0,0,0,0,0,0,0,0,0,0,0],"id":24,"left_children":[1,3,5,-1,7,9,11,13,15,17,-1,19,21,23,25,27,-1,29,31,33,35,37,39,41,-1,-1,-1,43,45,-1,47,49,51,53,-1,55,-1,57,59,61,63,-1,-1,-1,-1,-1,-1,-1,-1,-1,-1,-1,-1,-1,-1,-1,-1,-1,-1,-1,-1,-1,-1,-1,-1],"loss_changes":[3.412263E3,1.310658E2,9.663086E0,0E0,2.907334E2,7.1885567E0,1.1713745E1,4.924225E0,4.819689E1,4.416271E0,0E0,1.03992E1,5.3948975E0,9.3792725E-1,1.4830573E1,2.3697624E1,0E0,1.5138419E1,3.2558098E0,1.24227295E1,2.1887207E0,1.7748718E0,4.173462E0,1.2464516E1,0E0,0E0,0E0,2.308257E1,2.1312622E1,0E0,1.6789358E1,5.083565E0,1.026062E0,8.443275E0,0E0,1.8307037E0,0E0,9.472572E0,2.054016E0,5.883789E-2,4.91527E0,0E0,0E0,0E0,0E0,0E0,0E0,0E0,0E0,0E0,0E0,0E0,0E0,0E0,0E0,0E0,0E0,0E0,0E0,0E0,0E0,0E0,0E0,0E0,0E0],"parents":[2147483647,0,0,1,1,2,2,4,4,5,5,6,6,7,7,8,8,9,9,11,11,12,12,13,13,14,14,15,15,17,17,18,18,19,19,20,20,21,21,22,22,23,23,27,27,28,28,30,30,31,31,32,32,33,33,35,35,37,37,38,38,39,39,40,40],"right_children":[2,4,6,-1,8,10,12,14,16,18,-1,20,22,24,26,28,-1,30,32,34,36,38,40,42,-1,-1,-1,44,46,-1,48,50,52,54,-1,56,-1,58,60,62,64,-1,-1,-1,-1,-1,-1,-1,-1,-1,-1,-1,-1,-1,-1,-1,-1,-1,-1,-1,-1,-1,-1,-1,-1],"split_conditions":[1E0,2.1E1,1.003E2,-2.5381073E-2,9.49E1,9.52E1,2.3E1,9.45E1,4.5E1,2.9E1,-1.6781026E-2,1.099E2,1.038E2,8.42E1,7.58E1,2.183E3,-2.4379402E-2,1.664E3,8.63E1,1.096E2,1.9E1,2.4E1,3.6E1,8.41E1,-2.5331415E-2,2.6790136E-2,-2.2806175E-2,9.95E1,2.392E3,2.8932955E-2,7.4E1,2.524E3,9.97E1,2E1,-2.1999624E-2,9.48E1,3.3263776E-2,8.95E1,9.61E1,2.879E3,2.138E3,-2.328331E-2,7.819819E-3,-1.98283E-2,1.0868181E-2,1.7779712E-2,2.8408982E-3,2.772533E-2,-2.7224137E-2,-1.8616565E-2,1.9445004E-2,3.0798651E-2,1.26664955E-2,6.180666E-3,2.317518E-2,1.1402599E-2,2.920592E-2,-2.0053918E-2,2.6210047E-2,2.816858E-2,1.3475622E-2,3.2350283E-2,1.5828395E-2,2.230858E-3,2.5834583E-2],"split_indices":[5,3,2,0,2,0,3,2,3,3,0,2,2,0,0,1,0,1,0,2,3,3,3,0,0,0,0,2,1,0,0,1,2,3,0,0,0,0,0,1,1,0,0,0,0,0,0,0,0,0,0,0,0,0,0,0,0,0,0,0,0,0,0,0,0],"split_type":[0,0,0,0,0,0,0,0,0,0,0,0,0,0,0,0,0,0,0,0,0,0,0,0,0,0,0,0,0,0,0,0,0,0,0,0,0,0,0,0,0,0,0,0,0,0,0,0,0,0,0,0,0,0,0,0,0,0,0,0,0,0,0,0,0],"sum_hessian":[2.333573E3,1.3906217E3,9.4295123E2,8.2013684E2,5.704849E2,4.362632E1,8.993249E2,3.5524615E2,2.1523878E2,4.217813E1,1.4481896E0,1.4643636E2,7.5288855E2,3.456509E2,9.595234E0,1.9650345E2,1.8735336E1,1.5704865E1,2.6473265E1,8.9898926E1,5.6537422E1,2.2930994E2,5.235786E2,9.820082E1,2.4745009E2,2.489375E0,7.1058583E0,3.754267E1,1.5896078E2,7.9374695E0,7.767396E0,4.3774734E0,2.2095793E1,8.782774E1,2.0711877E0,1.2453869E1,4.4083557E1,6.797098E0,2.2251283E2,4.991098E2,2.4468784E1,9.320958E1,4.991246E0,2.0216726E1,1.7325943E1,9.4605995E1,6.435479E1,2.4977126E0,5.2696834E0,1.1871905E0,3.1902828E0,1.8631014E1,3.4647794E0,1.4947916E1,7.287983E1,7.5486183E0,4.9052505E0,1.6456344E0,5.151464E0,2.1588564E2,6.627206E0,4.9618167E2,2.928145E0,4.4831333E0,1.9985651E1],"tree_param":{"num_deleted":"0","num_feature":"8","num_nodes":"65","size_leaf_vector":"1"}},{"base_weights":[-1.7158879E-2,-1.0050063E0,1.4279287E0,-2.524515E-2,-6.358015E-1,9.320844E-1,1.4509666E0,-1.2100617E0,2.3690958E-1,1.0103154E0,-1.6651485E-2,1.1708878E0,1.5039454E0,-2.5271367E-2,-1.0815448E0,4.149796E-1,-9.619126E-1,3.5367042E-1,1.1741959E0,9.4072276E-1,1.5153818E0,1.284107E0,1.5486902E0,3.603747E-2,-1.1696812E0,-7.894223E-2,7.1092343E-1,-2.4642177E-2,2.4448702E-2,1.069775E0,-2.1904735E-2,3.1182133E-2,6.4406264E-1,1.0001144E0,-2.1782054E-2,9.011681E-1,3.2365408E-2,-1.9865915E-2,1.3201357E0,1.5678194E0,9.9865115E-1,-2.5103131E-2,-1.6695589E-2,-1.7810073E-2,4.734946E-3,2.1281451E-2,1.0696497E-4,2.734966E-2,1.2466891E-2,3.0409647E-2,-2.8109366E-2,6.0573076E-3,2.2749173E-2,3.429028E-3,2.882277E-2,1.2370139E-2,2.757907E-2,3.0050946E-2,3.2791317E-2,2.3050154E-2,-1.7525105E-2],"categories":[],"categories_nodes":[],"categories_segments":[],"categories_sizes":[],"default_left":[0,0,0,0,0,0,0,0,0,0,0,0,0,0,0,0,0,0,0,0,0,0,0,0,0,0,0,0,0,0,0,0,0,0,0,0,0,0,0,0,0,0,0,0,0,0,0,0,0,0,0,0,0,0,0,0,0,0,0,0,0],"id":25,"left_children":[1,3,5,-1,7,9,11,13,15,17,-1,19,21,-1,23,25,27,29,31,33,35,37,39,-1,41,43,45,-1,-1,47,-1,-1,49,51,-1,53,-1,-1,55,57,59,-1,-1,-1,-1,-1,-1,-1,-1,-1,-1,-1,-1,-1,-1,-1,-1,-1,-1,-1,-1],"loss_changes":[3.3040005E3,1.2976685E2,9.38269E0,0E0,2.8421588E2,6.9873314E0,1.1537842E1,9.841919E-1,4.8575924E1,4.220913E0,0E0,1.0236359E1,5.390381E0,0E0,2.9410095E1,2.888021E1,1.8910034E1,1.158448E1,5.943264E0,1.2036446E1,2.1609802E0,1.2200912E1,4.941284E0,0E0,1.9537354E0,1.9370338E1,3.0744411E1,0E0,0E0,1.07460976E-1,0E0,0E0,3.092303E1,8.154175E0,0E0,3.879902E0,0E0,0E0,4.556549E0,3.2714844E-1,7.800379E0,0E0,0E0,0E0,0E0,0E0,0E0,0E0,0E0,0E0,0E0,0E0,0E0,0E0,0E0,0E0,0E0,0E0,0E0,0E0,0E0],"parents":[2147483647,0,0,1,1,2,2,4,4,5,5,6,6,7,7,8,8,9,9,11,11,12,12,14,14,15,15,16,16,17,17,18,18,19,19,20,20,21,21,22,22,24,24,25,25,26,26,29,29,32,32,33,33,35,35,38,38,39,39,40,40],"right_children":[2,4,6,-1,8,10,12,14,16,18,-1,20,22,-1,24,26,28,30,32,34,36,38,40,-1,42,44,46,-1,-1,48,-1,-1,50,52,-1,54,-1,-1,56,58,60,-1,-1,-1,-1,-1,-1,-1,-1,-1,-1,-1,-1,-1,-1,-1,-1,-1,-1,-1,-1],"split_conditions":[1E0,2.1E1,1.003E2,-2.524515E-2,9.45E1,9.52E1,2.3E1,8.88E1,4.2E1,8.48E1,-1.6651485E-2,1.099E2,1.026E2,-2.5271367E-2,8.89E1,3.1E1,1.05E2,9.95E1,8.83E1,1.096E2,1.8E1,2.4E1,3.7E1,3.603747E-2,2.455E3,2.238E3,3.7E1,-2.4642177E-2,2.4448702E-2,7.4E1,-2.1904735E-2,3.1182133E-2,9.86E1,2E1,-2.1782054E-2,9.47E1,3.2365408E-2,-1.9865915E-2,2.6E1,1.066E2,9.37E1,-2.5103131E-2,-1.6695589E-2,-1.7810073E-2,4.734946E-3,2.1281451E-2,1.0696497E-4,2.734966E-2,1.2466891E-2,3.0409647E-2,-2.8109366E-2,6.0573076E-3,2.2749173E-2,3.429028E-3,2.882277E-2,1.2370139E-2,2.757907E-2,3.0050946E-2,3.2791317E-2,2.3050154E-2,-1.7525105E-2],"split_indices":[5,3,2,0,2,0,3,2,3,0,0,2,2,0,2,3,2,2,0,2,3,3,3,0,1,1,3,0,0,0,0,0,2,3,0,0,0,0,3,2,0,0,0,0,0,0,0,0,0,0,0,0,0,0,0,0,0,0,0,0,0],"split_type":[0,0,0,0,0,0,0,0,0,0,0,0,0,0,0,0,0,0,0,0,0,0,0,0,0,0,0,0,0,0,0,0,0,0,0,0,0,0,0,0,0,0,0,0,0,0,0,0,0,0,0,0,0,0,0,0,0,0,0,0,0],"sum_hessian":[2.312489E3,1.3737273E3,9.387617E2,8.0818695E2,5.6554034E2,4.352093E1,8.952408E2,3.4086093E2,2.246794E2,4.2082783E1,1.4381472E0,1.4607858E2,7.491622E2,2.3442755E2,1.0643338E2,1.9619145E2,2.8487942E1,9.035788E0,3.3046993E1,